{"learner":{"attributes":{"best_iteration":"99","best_score":"2.263475182056927","scikit_learn":"{\"_estimator_type\": \"regressor\"}"},"feature_names":[],"feature_types":[],"gradient_booster":{"model":{"gbtree_model_param":{"num_parallel_tree":"1","num_trees":"100"},"iteration_indptr":[0,1,2,3,4,5,6,7,8,9,10,11,12,13,14,15,16,17,18,19,20,21,22,23,24,25,26,27,28,29,30,31,32,33,34,35,36,37,38,39,40,41,42,43,44,45,46,47,48,49,50,51,52,53,54,55,56,57,58,59,60,61,62,63,64,65,66,67,68,69,70,71,72,73,74,75,76,77,78,79,80,81,82,83,84,85,86,87,88,89,90,91,92,93,94,95,96,97,98,99,100],"tree_info":[0,0,0,0,0,0,0,0,0,0,0,0,0,0,0,0,0,0,0,0,0,0,0,0,0,0,0,0,0,0,0,0,0,0,0,0,0,0,0,0,0,0,0,0,0,0,0,0,0,0,0,0,0,0,0,0,0,0,0,0,0,0,0,0,0,0,0,0,0,0,0,0,0,0,0,0,0,0,0,0,0,0,0,0,0,0,0,0,0,0,0,0,0,0,0,0,0,0,0,0],"trees":[{"base_weights":[-5.747449E-7,-7.1470737E0,8.889394E0,-1.292084E1,-5.812479E-1,2.5971491E0,1.6182552E1,-8.8151884E-1,-1.6338024E0,-4.252115E-1,3.488116E-1,7.679988E-1,-5.4709364E-2,1.8720572E0,1.0540704E0],"categories":[],"categories_nodes":[],"categories_segments":[],"categories_sizes":[],"default_left":[0,0,0,0,0,0,0,0,0,0,0,0,0,0,0],"id":0,"left_children":[1,3,5,7,9,11,13,-1,-1,-1,-1,-1,-1,-1,-1],"loss_changes":[5.73069E4,1.8947264E4,1.840589E4,3.5878945E3,3.5252834E3,3.4722263E3,2.4660273E3,0E0,0E0,0E0,0E0,0E0,0E0,0E0,0E0],"parents":[2147483647,0,0,1,1,2,2,3,3,4,4,5,5,6,6],"right_children":[2,4,6,8,10,12,14,-1,-1,-1,-1,-1,-1,-1,-1],"split_conditions":[5.4353824E0,5.3030214E0,5.3030214E0,4.4973984E0,2.8654125E0,3.7904048E0,6.3467126E0,-8.8151884E-1,-1.6338024E0,-4.252115E-1,3.488116E-1,7.679988E-1,-5.4709364E-2,1.8720572E0,1.0540704E0],"split_indices":[3,0,0,1,3,1,1,0,0,0,0,0,0,0,0],"split_type":[0,0,0,0,0,0,0,0,0,0,0,0,0,0,0],"sum_hessian":[9E2,4.99E2,4.01E2,2.65E2,2.34E2,2.16E2,1.85E2,1.22E2,1.43E2,1.23E2,1.11E2,8.2E1,1.34E2,1.26E2,5.9E1],"tree_param":{"num_deleted":"0","num_feature":"5","num_nodes":"15","size_leaf_vector":"1"}},{"base_weights":[1.1621172E-3,-6.4375496E0,8.009507E0,-1.1638212E1,-5.2344877E-1,2.696587E0,1.5026629E1,-1.6384724E0,-8.816932E-1,-2.5858432E-1,5.5349654E-1,7.346575E-1,-2.368322E-2,8.21101E-1,1.675766E0],"categories":[],"categories_nodes":[],"categories_segments":[],"categories_sizes":[],"default_left":[0,0,0,0,0,0,0,0,0,0,0,0,0,0,0],"id":1,"left_children":[1,3,5,7,9,11,13,-1,-1,-1,-1,-1,-1,-1,-1],"loss_changes":[4.651021E4,1.5372527E4,1.4946605E4,3.4176094E3,2.9505996E3,3.139024E3,1.9034688E3,0E0,0E0,0E0,0E0,0E0,0E0,0E0,0E0],"parents":[2147483647,0,0,1,1,2,2,3,3,4,4,5,5,6,6],"right_children":[2,4,6,8,10,12,14,-1,-1,-1,-1,-1,-1,-1,-1],"split_conditions":[5.4353824E0,5.3030214E0,5.6391954E0,2.182539E0,3.9698153E0,3.7904048E0,6.372015E0,-1.6384724E0,-8.816932E-1,-2.5858432E-1,5.5349654E-1,7.346575E-1,-2.368322E-2,8.21101E-1,1.675766E0],"split_indices":[3,0,0,3,3,1,3,0,0,0,0,0,0,0,0],"split_type":[0,0,0,0,0,0,0,0,0,0,0,0,0,0,0],"sum_hessian":[9E2,4.99E2,4.01E2,2.65E2,2.34E2,2.29E2,1.72E2,9.7E1,1.68E2,1.75E2,5.9E1,8.8E1,1.41E2,3.6E1,1.36E2],"tree_param":{"num_deleted":"0","num_feature":"5","num_nodes":"15","size_leaf_vector":"1"}},{"base_weights":[2.1365227E-3,-5.540627E0,7.5816054E0,-9.122726E0,1.6554145E0,2.2914376E0,1.3665802E1,-1.2327054E0,-5.494127E-1,-1.9507049E-1,5.201744E-1,-2.4457626E-1,4.9297816E-1,1.6767864E0,1.0188413E0],"categories":[],"categories_nodes":[],"categories_segments":[],"categories_sizes":[],"default_left":[0,0,0,0,0,0,0,0,0,0,0,0,0,0,0],"id":2,"left_children":[1,3,5,7,9,11,13,-1,-1,-1,-1,-1,-1,-1,-1],"loss_changes":[3.78941E4,1.3444885E4,1.2231713E4,3.9785469E3,2.2353438E3,2.5742217E3,1.7384727E3,0E0,0E0,0E0,0E0,0E0,0E0,0E0,0E0],"parents":[2147483647,0,0,1,1,2,2,3,3,4,4,5,5,6,6],"right_children":[2,4,6,8,10,12,14,-1,-1,-1,-1,-1,-1,-1,-1],"split_conditions":[5.7060976E0,6.6252227E0,5.201635E0,3.3527906E0,2.799339E0,1.6352388E0,4.3201895E0,-1.2327054E0,-5.494127E-1,-1.9507049E-1,5.201744E-1,-2.4457626E-1,4.9297816E-1,1.6767864E0,1.0188413E0],"split_indices":[3,0,0,0,3,0,1,0,0,0,0,0,0,0,0],"split_type":[0,0,0,0,0,0,0,0,0,0,0,0,0,0,0],"sum_hessian":[9E2,5.2E2,3.8E2,3.47E2,1.73E2,2.04E2,1.76E2,1.83E2,1.64E2,8.6E1,8.7E1,7.3E1,1.31E2,9.1E1,8.5E1],"tree_param":{"num_deleted":"0","num_feature":"5","num_nodes":"15","size_leaf_vector":"1"}},{"base_weights":[3.5733234E-3,-5.9380755E0,5.8407454E0,-1.0301382E1,-1.1818495E0,-1.8136296E-1,1.0398717E1,-7.4957186E-1,-1.370941E0,2.4205828E-1,-4.0539464E-1,2.9702505E-1,-4.039166E-1,1.4187754E0,7.025535E-1],"categories":[],"categories_nodes":[],"categories_segments":[],"categories_sizes":[],"default_left":[0,0,0,0,0,0,0,0,0,0,0,0,0,0,0],"id":3,"left_children":[1,3,5,7,9,11,13,-1,-1,-1,-1,-1,-1,-1,-1],"loss_changes":[3.128355E4,9.264359E3,1.2490999E4,2.1251328E3,2.2343179E3,2.4071833E3,3.2106328E3,0E0,0E0,0E0,0E0,0E0,0E0,0E0,0E0],"parents":[2147483647,0,0,1,1,2,2,3,3,4,4,5,5,6,6],"right_children":[2,4,6,8,10,12,14,-1,-1,-1,-1,-1,-1,-1,-1],"split_conditions":[4.8889785E0,5.3030214E0,4.027037E0,5.330289E0,4.562365E0,5.855637E0,4.1833386E0,-7.4957186E-1,-1.370941E0,2.4205828E-1,-4.0539464E-1,2.9702505E-1,-4.039166E-1,1.4187754E0,7.025535E-1],"split_indices":[3,0,0,1,1,1,1,0,0,0,0,0,0,0,0],"split_type":[0,0,0,0,0,0,0,0,0,0,0,0,0,0,0],"sum_hessian":[9E2,4.46E2,4.54E2,2.32E2,2.14E2,1.96E2,2.58E2,1.29E2,1.03E2,9.5E1,1.19E2,1.08E2,8.8E1,1.2E2,1.38E2],"tree_param":{"num_deleted":"0","num_feature":"5","num_nodes":"15","size_leaf_vector":"1"}},{"base_weights":[2.917382E-3,-3.8565943E0,7.5949736E0,-6.5833583E0,2.935178E0,3.6433494E0,1.2999992E1,-1.1721429E0,-4.2698154E-1,3.54654E-2,7.746245E-1,7.174411E-1,7.888323E-2,1.5573875E0,1.0097196E0],"categories":[],"categories_nodes":[],"categories_segments":[],"categories_sizes":[],"default_left":[0,0,0,0,0,0,0,0,0,0,0,0,0,0,0],"id":4,"left_children":[1,3,5,7,9,11,13,-1,-1,-1,-1,-1,-1,-1,-1],"loss_changes":[2.6430059E4,1.10940205E4,6.4456523E3,5.0257637E3,2.1326455E3,1.7784077E3,7.9909375E2,0E0,0E0,0E0,0E0,0E0,0E0,0E0,0E0],"parents":[2147483647,0,0,1,1,2,2,3,3,4,4,5,5,6,6],"right_children":[2,4,6,8,10,12,14,-1,-1,-1,-1,-1,-1,-1,-1],"split_conditions":[6.5815983E0,7.0723863E0,5.8660846E0,2.182539E0,4.2182817E0,4.625347E0,4.3201895E0,-1.1721429E0,-4.2698154E-1,3.54654E-2,7.746245E-1,7.174411E-1,7.888323E-2,1.5573875E0,1.0097196E0],"split_indices":[3,0,0,3,3,1,1,0,0,0,0,0,0,0,0],"split_type":[0,0,0,0,0,0,0,0,0,0,0,0,0,0,0],"sum_hessian":[9E2,5.97E2,3.03E2,4.26E2,1.71E2,1.76E2,1.27E2,1.31E2,2.95E2,1.12E2,5.9E1,7.8E1,9.8E1,6.5E1,6.2E1],"tree_param":{"num_deleted":"0","num_feature":"5","num_nodes":"15","size_leaf_vector":"1"}},{"base_weights":[5.4824674E-3,-3.387806E0,7.0228763E0,-8.760484E0,-4.262631E-1,4.3570346E-1,9.611975E0,-1.1189736E0,-4.8849353E-1,-3.9495715E-1,2.569723E-1,2.500096E-1,-3.3635393E-1,7.1769583E-1,1.3000079E0],"categories":[],"categories_nodes":[],"categories_segments":[],"categories_sizes":[],"default_left":[0,0,0,0,0,0,0,0,0,0,0,0,0,0,0],"id":5,"left_children":[1,3,5,7,9,11,13,-1,-1,-1,-1,-1,-1,-1,-1],"loss_changes":[2.1478441E4,9.670407E3,5.0099355E3,1.9789082E3,4.158572E3,6.672319E2,1.6474668E3,0E0,0E0,0E0,0E0,0E0,0E0,0E0,0E0],"parents":[2147483647,0,0,1,1,2,2,3,3,4,4,5,5,6,6],"right_children":[2,4,6,8,10,12,14,-1,-1,-1,-1,-1,-1,-1,-1],"split_conditions":[6.7170067E0,3.3527906E0,2.7836847E0,4.186073E0,2.9938338E0,6.918952E0,7.0938883E0,-1.1189736E0,-4.8849353E-1,-3.9495715E-1,2.569723E-1,2.500096E-1,-3.3635393E-1,7.1769583E-1,1.3000079E0],"split_indices":[3,0,0,3,3,1,0,0,0,0,0,0,0,0,0],"split_type":[0,0,0,0,0,0,0,0,0,0,0,0,0,0,0],"sum_hessian":[9E2,6.07E2,2.93E2,2.15E2,3.92E2,8.3E1,2.1E2,1.31E2,8.4E1,1.8E2,2.12E2,5.4E1,2.9E1,1.24E2,8.6E1],"tree_param":{"num_deleted":"0","num_feature":"5","num_nodes":"15","size_leaf_vector":"1"}},{"base_weights":[5.1405206E-3,-5.147689E0,3.7562325E0,-9.862833E0,-2.4181323E0,-7.87128E-1,7.309873E0,-6.992715E-1,-1.2592053E0,1.5746035E-1,-4.7926113E-1,1.7246087E-1,-4.5057574E-1,1.0722126E0,4.5604664E-1],"categories":[],"categories_nodes":[],"categories_segments":[],"categories_sizes":[],"default_left":[0,0,0,0,0,0,0,0,0,0,0,0,0,0,0],"id":6,"left_children":[1,3,5,7,9,11,13,-1,-1,-1,-1,-1,-1,-1,-1],"loss_changes":[1.743453E4,4.8668447E3,8.433689E3,1.00076074E3,2.301868E3,2.1560208E3,2.6999326E3,0E0,0E0,0E0,0E0,0E0,0E0,0E0,0E0],"parents":[2147483647,0,0,1,1,2,2,3,3,4,4,5,5,6,6],"right_children":[2,4,6,8,10,12,14,-1,-1,-1,-1,-1,-1,-1,-1],"split_conditions":[4.0774813E0,3.6646154E0,4.073655E0,4.838602E0,3.4534194E0,6.3467126E0,4.1833386E0,-6.992715E-1,-1.2592053E0,1.5746035E-1,-4.7926113E-1,1.7246087E-1,-4.5057574E-1,1.0722126E0,4.5604664E-1],"split_indices":[3,0,0,1,1,1,1,0,0,0,0,0,0,0,0],"split_type":[0,0,0,0,0,0,0,0,0,0,0,0,0,0,0],"sum_hessian":[9E2,3.79E2,5.21E2,1.38E2,2.41E2,2.29E2,2.92E2,6.9E1,6.9E1,9E1,1.51E2,1.37E2,9.2E1,1.29E2,1.63E2],"tree_param":{"num_deleted":"0","num_feature":"5","num_nodes":"15","size_leaf_vector":"1"}},{"base_weights":[3.4830307E-3,-2.6273518E0,6.429937E0,-4.9047413E0,2.9157615E0,4.004897E0,1.1179391E1,-9.224184E-1,-3.1243354E-1,6.098978E-1,-3.7353137E-3,8.5977346E-1,2.3966335E-1,8.355872E-1,1.3158149E0],"categories":[],"categories_nodes":[],"categories_segments":[],"categories_sizes":[],"default_left":[0,0,0,0,0,0,0,0,0,0,0,0,0,0,0],"id":7,"left_children":[1,3,5,7,9,11,13,-1,-1,-1,-1,-1,-1,-1,-1],"loss_changes":[1.5250046E4,8.0935513E3,2.9728428E3,3.4626055E3,1.7581033E3,1.272031E3,3.817129E2,0E0,0E0,0E0,0E0,0E0,0E0,0E0,0E0],"parents":[2147483647,0,0,1,1,2,2,3,3,4,4,5,5,6,6],"right_children":[2,4,6,8,10,12,14,-1,-1,-1,-1,-1,-1,-1,-1],"split_conditions":[7.0624223E0,7.0723863E0,6.6857266E0,2.182539E0,4.838602E0,1.8447626E0,8.157454E0,-9.224184E-1,-3.1243354E-1,6.098978E-1,-3.7353137E-3,8.5977346E-1,2.3966335E-1,8.355872E-1,1.3158149E0],"split_indices":[3,0,0,3,1,1,3,0,0,0,0,0,0,0,0],"split_type":[0,0,0,0,0,0,0,0,0,0,0,0,0,0,0],"sum_hessian":[9E2,6.39E2,2.61E2,4.53E2,1.86E2,1.74E2,8.7E1,1.31E2,3.22E2,8.9E1,9.7E1,4.4E1,1.3E2,3.8E1,4.9E1],"tree_param":{"num_deleted":"0","num_feature":"5","num_nodes":"15","size_leaf_vector":"1"}},{"base_weights":[6.0447804E-3,-2.648393E0,5.227583E0,-4.871077E0,1.832623E0,2.4759793E0,8.991694E0,-1.20754436E-1,-6.753778E-1,4.1397318E-1,-1.650948E-1,6.758733E-1,1.0512247E-1,1.0962571E0,6.784241E-1],"categories":[],"categories_nodes":[],"categories_segments":[],"categories_sizes":[],"default_left":[0,0,0,0,0,0,0,0,0,0,0,0,0,0,0],"id":8,"left_children":[1,3,5,7,9,11,13,-1,-1,-1,-1,-1,-1,-1,-1],"loss_changes":[1.2501928E4,5.964937E3,3.1263691E3,2.7507783E3,1.606193E3,1.0729266E3,4.8250684E2,0E0,0E0,0E0,0E0,0E0,0E0,0E0,0E0],"parents":[2147483647,0,0,1,1,2,2,3,3,4,4,5,5,6,6],"right_children":[2,4,6,8,10,12,14,-1,-1,-1,-1,-1,-1,-1,-1],"split_conditions":[6.5815983E0,6.6252227E0,5.8660846E0,3.4131866E0,6.0315213E0,1.8447626E0,4.3201895E0,-1.20754436E-1,-6.753778E-1,4.1397318E-1,-1.650948E-1,6.758733E-1,1.0512247E-1,1.0962571E0,6.784241E-1],"split_indices":[3,0,0,1,1,1,1,0,0,0,0,0,0,0,0],"split_type":[0,0,0,0,0,0,0,0,0,0,0,0,0,0,0],"sum_hessian":[9E2,5.97E2,3.03E2,3.99E2,1.98E2,1.76E2,1.27E2,1.36E2,2.63E2,1.19E2,7.9E1,4.3E1,1.33E2,6.5E1,6.2E1],"tree_param":{"num_deleted":"0","num_feature":"5","num_nodes":"15","size_leaf_vector":"1"}},{"base_weights":[7.669464E-3,-4.0187936E0,2.9387965E0,-9.543551E0,-2.3945632E0,-1.9771883E0,5.1564817E0,-1.274681E0,-7.690196E-1,-4.0121693E-2,-5.2577126E-1,7.478966E-3,-5.595502E-1,6.928169E-1,1.851511E-1],"categories":[],"categories_nodes":[],"categories_segments":[],"categories_sizes":[],"default_left":[0,0,0,0,0,0,0,0,0,0,0,0,0,0,0],"id":9,"left_children":[1,3,5,7,9,11,13,-1,-1,-1,-1,-1,-1,-1,-1],"loss_changes":[1.064548E4,3.3870688E3,5.7010967E3,4.125381E2,1.6815283E3,1.2106445E3,2.0951074E3,0E0,0E0,0E0,0E0,0E0,0E0,0E0,0E0],"parents":[2147483647,0,0,1,1,2,2,3,3,4,4,5,5,6,6],"right_children":[2,4,6,8,10,12,14,-1,-1,-1,-1,-1,-1,-1,-1],"split_conditions":[4.0774813E0,2.3987412E0,2.7836847E0,1.3924537E0,5.855637E0,6.918952E0,6.366697E0,-1.274681E0,-7.690196E-1,-4.0121693E-2,-5.2577126E-1,7.478966E-3,-5.595502E-1,6.928169E-1,1.851511E-1],"split_indices":[3,0,0,3,1,1,1,0,0,0,0,0,0,0,0],"split_type":[0,0,0,0,0,0,0,0,0,0,0,0,0,0,0],"sum_hessian":[9E2,3.79E2,5.21E2,8.5E1,2.94E2,1.62E2,3.59E2,2.9E1,5.6E1,1.74E2,1.2E2,1.04E2,5.8E1,2.33E2,1.26E2],"tree_param":{"num_deleted":"0","num_feature":"5","num_nodes":"15","size_leaf_vector":"1"}},{"base_weights":[4.3677115E-3,-1.9221562E0,5.288301E0,-3.7789161E0,2.255874E0,3.5931258E0,9.296564E0,-7.746113E-1,-2.4416879E-1,-2.2131228E-1,3.7212178E-1,5.9688663E-1,1.629703E-1,6.433231E-1,1.1120456E0],"categories":[],"categories_nodes":[],"categories_segments":[],"categories_sizes":[],"default_left":[0,0,0,0,0,0,0,0,0,0,0,0,0,0,0],"id":10,"left_children":[1,3,5,7,9,11,13,-1,-1,-1,-1,-1,-1,-1,-1],"loss_changes":[9.182006E3,5.1362974E3,1.6041221E3,2.4107983E3,1.3441533E3,7.87916E2,2.992505E2,0E0,0E0,0E0,0E0,0E0,0E0,0E0,0E0],"parents":[2147483647,0,0,1,1,2,2,3,3,4,4,5,5,6,6],"right_children":[2,4,6,8,10,12,14,-1,-1,-1,-1,-1,-1,-1,-1],"split_conditions":[7.3444395E0,6.9201126E0,7.0723863E0,1.9012877E0,1.6336676E0,4.3201895E0,8.157454E0,-7.746113E-1,-2.4416879E-1,-2.2131228E-1,3.7212178E-1,5.9688663E-1,1.629703E-1,6.433231E-1,1.1120456E0],"split_indices":[3,0,0,3,3,1,3,0,0,0,0,0,0,0,0],"split_type":[0,0,0,0,0,0,0,0,0,0,0,0,0,0,0],"sum_hessian":[9E2,6.6E2,2.4E2,4.57E2,2.03E2,1.7E2,7E1,1.14E2,3.43E2,5E1,1.53E2,7.6E1,9.4E1,2.9E1,4.1E1],"tree_param":{"num_deleted":"0","num_feature":"5","num_nodes":"15","size_leaf_vector":"1"}},{"base_weights":[5.7595097E-3,-1.6639969E0,4.9708686E0,-2.9558816E0,3.3845394E0,3.642371E0,9.159531E0,-6.087277E-2,-5.0373596E-1,-8.966138E-2,4.904325E-1,4.6868873E-1,-2.1923741E-2,6.6543835E-1,1.141822E0],"categories":[],"categories_nodes":[],"categories_segments":[],"categories_sizes":[],"default_left":[0,0,0,0,0,0,0,0,0,0,0,0,0,0,0],"id":11,"left_children":[1,3,5,7,9,11,13,-1,-1,-1,-1,-1,-1,-1,-1],"loss_changes":[7.4780327E3,4.4124395E3,1.2298081E3,2.6253599E3,9.022854E2,7.028589E2,2.2956934E2,0E0,0E0,0E0,0E0,0E0,0E0,0E0,0E0],"parents":[2147483647,0,0,1,1,2,2,3,3,4,4,5,5,6,6],"right_children":[2,4,6,8,10,12,14,-1,-1,-1,-1,-1,-1,-1,-1],"split_conditions":[7.4707828E0,8.036036E0,7.7534614E0,4.738098E0,1.6336676E0,7.8961816E0,8.808951E0,-6.087277E-2,-5.0373596E-1,-8.966138E-2,4.904325E-1,4.6868873E-1,-2.1923741E-2,6.6543835E-1,1.141822E0],"split_indices":[3,0,0,1,3,1,3,0,0,0,0,0,0,0,0],"split_type":[0,0,0,0,0,0,0,0,0,0,0,0,0,0,0],"sum_hessian":[9E2,6.74E2,2.26E2,5.37E2,1.37E2,1.73E2,5.3E1,2.53E2,2.84E2,3.6E1,1.01E2,1.36E2,3.7E1,2.7E1,2.6E1],"tree_param":{"num_deleted":"0","num_feature":"5","num_nodes":"15","size_leaf_vector":"1"}},{"base_weights":[7.5033247E-3,-3.0654404E0,2.3588018E0,-7.8459296E0,-1.671531E0,-1.6002463E0,4.168055E0,-1.13635495E-1,-8.4117407E-1,-3.2973797E-3,-4.218591E-1,2.2986757E-3,-4.5623383E-1,6.340996E-1,2.3971851E-1],"categories":[],"categories_nodes":[],"categories_segments":[],"categories_sizes":[],"default_left":[0,0,0,0,0,0,0,0,0,0,0,0,0,0,0],"id":12,"left_children":[1,3,5,7,9,11,13,-1,-1,-1,-1,-1,-1,-1,-1],"loss_changes":[6.517323E3,2.592341E3,3.6669233E3,3.2452002E2,1.2686057E3,7.7421954E2,1.3354458E3,0E0,0E0,0E0,0E0,0E0,0E0,0E0,0E0],"parents":[2147483647,0,0,1,1,2,2,3,3,4,4,5,5,6,6],"right_children":[2,4,6,8,10,12,14,-1,-1,-1,-1,-1,-1,-1,-1],"split_conditions":[4.2182817E0,2.3987412E0,2.7836847E0,9.536092E-1,6.016118E0,6.918952E0,4.1833386E0,-1.13635495E-1,-8.4117407E-1,-3.2973797E-3,-4.218591E-1,2.2986757E-3,-4.5623383E-1,6.340996E-1,2.3971851E-1],"split_indices":[3,0,0,1,1,1,1,0,0,0,0,0,0,0,0],"split_type":[0,0,0,0,0,0,0,0,0,0,0,0,0,0,0],"sum_hessian":[9E2,3.9E2,5.1E2,8.7E1,3.03E2,1.6E2,3.5E2,7E0,8E1,1.85E2,1.18E2,1.04E2,5.6E1,1.56E2,1.94E2],"tree_param":{"num_deleted":"0","num_feature":"5","num_nodes":"15","size_leaf_vector":"1"}},{"base_weights":[5.687523E-3,-1.4066391E0,4.2053123E0,-4.174676E0,3.815273E-1,3.1920426E0,8.466929E0,-2.3877211E-1,-6.8749154E-1,-4.1587892E-1,1.4073682E-1,7.753501E-1,2.4308555E-1,5.5544204E-1,1.0541233E0],"categories":[],"categories_nodes":[],"categories_segments":[],"categories_sizes":[],"default_left":[0,0,0,0,0,0,0,0,0,0,0,0,0,0,0],"id":13,"left_children":[1,3,5,7,9,11,13,-1,-1,-1,-1,-1,-1,-1,-1],"loss_changes":[5.349964E3,3.3426475E3,9.531975E2,1.2622646E3,1.920144E3,6.234951E2,2.0123071E2,0E0,0E0,0E0,0E0,0E0,0E0,0E0,0E0],"parents":[2147483647,0,0,1,1,2,2,3,3,4,4,5,5,6,6],"right_children":[2,4,6,8,10,12,14,-1,-1,-1,-1,-1,-1,-1,-1],"split_conditions":[7.4707828E0,3.6646154E0,8.190635E0,6.077527E0,1.163664E0,1.1938101E0,8.188693E0,-2.3877211E-1,-6.8749154E-1,-4.1587892E-1,1.4073682E-1,7.753501E-1,2.4308555E-1,5.5544204E-1,1.0541233E0],"split_indices":[3,0,0,1,3,1,3,0,0,0,0,0,0,0,0],"split_type":[0,0,0,0,0,0,0,0,0,0,0,0,0,0,0],"sum_hessian":[9E2,6.74E2,2.26E2,2.64E2,4.1E2,1.84E2,4.2E1,1.6E2,1.04E2,7.5E1,3.35E2,2.5E1,1.59E2,1.9E1,2.3E1],"tree_param":{"num_deleted":"0","num_feature":"5","num_nodes":"15","size_leaf_vector":"1"}},{"base_weights":[6.7019723E-3,-2.7279732E0,1.9086251E0,-6.825357E0,-1.5741248E0,-2.0622365E0,3.2374144E0,-9.316086E-1,-5.257141E-1,-3.5214897E-2,-4.5171005E-1,-4.7565002E-2,-4.6350023E-1,2.3166902E-1,6.6114223E-1],"categories":[],"categories_nodes":[],"categories_segments":[],"categories_sizes":[],"default_left":[0,0,0,0,0,0,0,0,0,0,0,0,0,0,0],"id":14,"left_children":[1,3,5,7,9,11,13,-1,-1,-1,-1,-1,-1,-1,-1],"loss_changes":[4.6914355E3,1.7385269E3,2.8137417E3,2.6741016E2,1.0413203E3,5.447719E2,1.224189E3,0E0,0E0,0E0,0E0,0E0,0E0,0E0,0E0],"parents":[2147483647,0,0,1,1,2,2,3,3,4,4,5,5,6,6],"right_children":[2,4,6,8,10,12,14,-1,-1,-1,-1,-1,-1,-1,-1],"split_conditions":[3.9779344E0,2.3987412E0,2.1469588E0,1.3924537E0,6.9701576E0,6.918952E0,8.652958E0,-9.316086E-1,-5.257141E-1,-3.5214897E-2,-4.5171005E-1,-4.7565002E-2,-4.6350023E-1,2.3166902E-1,6.6114223E-1],"split_indices":[3,0,0,3,1,1,0,0,0,0,0,0,0,0,0],"split_type":[0,0,0,0,0,0,0,0,0,0,0,0,0,0,0],"sum_hessian":[9E2,3.69E2,5.31E2,8E1,2.89E2,1.33E2,3.98E2,2.9E1,5.1E1,2.05E2,8.4E1,8.3E1,5E1,3.14E2,8.4E1],"tree_param":{"num_deleted":"0","num_feature":"5","num_nodes":"15","size_leaf_vector":"1"}},{"base_weights":[4.2977706E-3,-1.249594E0,3.4433773E0,-2.2486887E0,2.6964629E0,3.775193E-1,4.457598E0,-6.4688116E-1,-1.4357178E-1,5.54499E-1,1.0938682E-1,3.86955E-1,-7.4499086E-2,2.980299E-1,6.5057766E-1],"categories":[],"categories_nodes":[],"categories_segments":[],"categories_sizes":[],"default_left":[0,0,0,0,0,0,0,0,0,0,0,0,0,0,0],"id":15,"left_children":[1,3,5,7,9,11,13,-1,-1,-1,-1,-1,-1,-1,-1],"loss_changes":[3.889625E3,2.6120461E3,7.4769653E2,1.8021946E3,6.05649E2,2.41993E2,5.2827563E2,0E0,0E0,0E0,0E0,0E0,0E0,0E0,0E0],"parents":[2147483647,0,0,1,1,2,2,3,3,4,4,5,5,6,6],"right_children":[2,4,6,8,10,12,14,-1,-1,-1,-1,-1,-1,-1,-1],"split_conditions":[7.3444395E0,8.036036E0,2.6226404E0,1.11593E0,2.97349E0,2.2627244E0,8.773394E0,-6.4688116E-1,-1.4357178E-1,5.54499E-1,1.0938682E-1,3.86955E-1,-7.4499086E-2,2.980299E-1,6.5057766E-1],"split_indices":[3,0,0,3,1,4,3,0,0,0,0,0,0,0,0],"split_type":[0,0,0,0,0,0,0,0,0,0,0,0,0,0,0],"sum_hessian":[9E2,6.6E2,2.4E2,5.27E2,1.33E2,6E1,1.8E2,8.4E1,4.43E2,4.7E1,8.6E1,1.4E1,4.6E1,1.06E2,7.4E1],"tree_param":{"num_deleted":"0","num_feature":"5","num_nodes":"15","size_leaf_vector":"1"}},{"base_weights":[5.1271534E-3,-2.2803948E0,1.5946723E0,-5.84098E0,-1.2622343E0,-1.7849392E0,2.725683E0,-3.903599E-1,-7.6831514E-1,-4.0646288E-1,-9.410879E-3,-3.633654E-2,-4.0913558E-1,5.153136E-1,1.586444E-1],"categories":[],"categories_nodes":[],"categories_segments":[],"categories_sizes":[],"default_left":[0,0,0,0,0,0,0,0,0,0,0,0,0,0,0],"id":16,"left_children":[1,3,5,7,9,11,13,-1,-1,-1,-1,-1,-1,-1,-1],"loss_changes":[3.2769158E3,1.3339686E3,2.0383696E3,2.6266528E2,9.45673E2,4.378647E2,1.0952393E3,0E0,0E0,0E0,0E0,0E0,0E0,0E0,0E0],"parents":[2147483647,0,0,1,1,2,2,3,3,4,4,5,5,6,6],"right_children":[2,4,6,8,10,12,14,-1,-1,-1,-1,-1,-1,-1,-1],"split_conditions":[3.9779344E0,2.4205527E0,2.1469588E0,5.031325E0,2.9191117E0,6.918952E0,2.8077235E0,-3.903599E-1,-7.6831514E-1,-4.0646288E-1,-9.410879E-3,-3.633654E-2,-4.0913558E-1,5.153136E-1,1.586444E-1],"split_indices":[3,0,0,1,2,1,1,0,0,0,0,0,0,0,0],"split_type":[0,0,0,0,0,0,0,0,0,0,0,0,0,0,0],"sum_hessian":[9E2,3.69E2,5.31E2,8.1E1,2.88E2,1.33E2,3.98E2,4.1E1,4E1,8.4E1,2.04E2,8.3E1,5E1,1.26E2,2.72E2],"tree_param":{"num_deleted":"0","num_feature":"5","num_nodes":"15","size_leaf_vector":"1"}},{"base_weights":[3.1206529E-3,-9.629817E-1,3.2672184E0,-2.34309E0,1.2904893E0,2.3964567E0,7.1797113E0,2.0030065E-1,-3.049458E-1,-1.5908031E-1,2.479055E-1,1.0934211E-1,4.1129094E-1,5.5956954E-1,1.0013437E0],"categories":[],"categories_nodes":[],"categories_segments":[],"categories_sizes":[],"default_left":[0,0,0,0,0,0,0,0,0,0,0,0,0,0,0],"id":17,"left_children":[1,3,5,7,9,11,13,-1,-1,-1,-1,-1,-1,-1,-1],"loss_changes":[2.844407E3,2.1676074E3,6.84605E2,1.3323235E3,9.1146405E2,3.7572473E2,1.1004846E2,0E0,0E0,0E0,0E0,0E0,0E0,0E0,0E0],"parents":[2147483647,0,0,1,1,2,2,3,3,4,4,5,5,6,6],"right_children":[2,4,6,8,10,12,14,-1,-1,-1,-1,-1,-1,-1,-1],"split_conditions":[7.6585865E0,6.239985E0,7.9451556E0,1.0540137E0,3.055243E0,5.5554957E0,9.472486E0,2.0030065E-1,-3.049458E-1,-1.5908031E-1,2.479055E-1,1.0934211E-1,4.1129094E-1,5.5956954E-1,1.0013437E0],"split_indices":[3,0,0,1,2,2,0,0,0,0,0,0,0,0,0],"split_type":[0,0,0,0,0,0,0,0,0,0,0,0,0,0,0],"sum_hessian":[9E2,6.95E2,2.05E2,4.31E2,2.64E2,1.69E2,3.6E1,6E1,3.71E2,7.7E1,1.87E2,9.7E1,7.2E1,2.5E1,1.1E1],"tree_param":{"num_deleted":"0","num_feature":"5","num_nodes":"15","size_leaf_vector":"1"}},{"base_weights":[5.101253E-3,-3.286297E0,8.892812E-1,-4.019908E0,9.5042336E-1,2.219551E0,-1.2917135E0,-2.656096E-1,-5.7938856E-1,-9.578525E-2,2.7953377E-1,1.4744712E-1,6.0279554E-1,-4.6553144E-1,-5.0609823E-2],"categories":[],"categories_nodes":[],"categories_segments":[],"categories_sizes":[],"default_left":[0,0,0,0,0,0,0,0,0,0,0,0,0,0,0],"id":18,"left_children":[1,3,5,7,9,11,13,-1,-1,-1,-1,-1,-1,-1,-1],"loss_changes":[2.6250024E3,5.974685E2,2.0656997E3,3.789685E2,1.04775085E2,1.2453162E3,7.1111786E2,0E0,0E0,0E0,0E0,0E0,0E0,0E0,0E0],"parents":[2147483647,0,0,1,1,2,2,3,3,4,4,5,5,6,6],"right_children":[2,4,6,8,10,12,14,-1,-1,-1,-1,-1,-1,-1,-1],"split_conditions":[2.2207587E0,8.68468E0,6.3467126E0,5.313546E0,8.162998E-1,8.652958E0,1.4299169E0,-2.656096E-1,-5.7938856E-1,-9.578525E-2,2.7953377E-1,1.4744712E-1,6.0279554E-1,-4.6553144E-1,-5.0609823E-2],"split_indices":[3,0,1,1,3,0,0,0,0,0,0,0,0,0,0],"split_type":[0,0,0,0,0,0,0,0,0,0,0,0,0,0,0],"sum_hessian":[9E2,1.9E2,7.1E2,1.62E2,2.8E1,4.41E2,2.69E2,9.3E1,6.9E1,1.4E1,1.4E1,3.7E2,7.1E1,5E1,2.19E2],"tree_param":{"num_deleted":"0","num_feature":"5","num_nodes":"15","size_leaf_vector":"1"}},{"base_weights":[4.1170837E-3,-2.335242E0,1.0517528E0,-5.2765407E-2,-3.6100738E0,-1.6944501E0,1.9649065E0,-2.2368722E-1,2.2197612E-1,-5.9574383E-1,-2.7291378E-1,-3.26349E-1,2.7984833E-2,3.0018556E-1,9.534358E-3],"categories":[],"categories_nodes":[],"categories_segments":[],"categories_sizes":[],"default_left":[0,0,0,0,0,0,0,0,0,0,0,0,0,0,0],"id":19,"left_children":[1,3,5,7,9,11,13,-1,-1,-1,-1,-1,-1,-1,-1],"loss_changes":[2.2106233E3,8.116365E2,1.5656299E3,5.0627283E2,3.5389136E2,4.841627E2,9.069979E2,0E0,0E0,0E0,0E0,0E0,0E0,0E0,0E0],"parents":[2147483647,0,0,1,1,2,2,3,3,4,4,5,5,6,6],"right_children":[2,4,6,8,10,12,14,-1,-1,-1,-1,-1,-1,-1,-1],"split_conditions":[3.1218975E0,3.4534194E0,2.1469588E0,5.4463086E0,2.3906639E0,5.1209307E0,6.3467126E0,-2.2368722E-1,2.2197612E-1,-5.9574383E-1,-2.7291378E-1,-3.26349E-1,2.7984833E-2,3.0018556E-1,9.534358E-3],"split_indices":[3,1,0,0,2,2,1,0,0,0,0,0,0,0,0],"split_type":[0,0,0,0,0,0,0,0,0,0,0,0,0,0,0],"sum_hessian":[9E2,2.78E2,6.22E2,1E2,1.78E2,1.55E2,4.67E2,5.1E1,4.9E1,4.7E1,1.31E2,8.6E1,6.9E1,3E2,1.67E2],"tree_param":{"num_deleted":"0","num_feature":"5","num_nodes":"15","size_leaf_vector":"1"}},{"base_weights":[2.7518508E-3,-5.966834E-1,3.7288194E0,2.2365592E0,-1.3177409E0,1.5900298E0,5.556577E0,5.1003005E-2,3.6760947E-1,-1.9108152E-1,2.10676E-1,2.2710148E-1,-3.035125E-1,4.8030114E-1,9.3716013E-1],"categories":[],"categories_nodes":[],"categories_segments":[],"categories_sizes":[],"default_left":[0,0,0,0,0,0,0,0,0,0,0,0,0,0,0],"id":20,"left_children":[1,3,5,7,9,11,13,-1,-1,-1,-1,-1,-1,-1,-1],"loss_changes":[2.0146411E3,1.5903044E3,4.7981372E2,3.9081824E2,1.2632354E3,1.9272276E2,1.4760425E2,0E0,0E0,0E0,0E0,0E0,0E0,0E0,0E0],"parents":[2147483647,0,0,1,1,2,2,3,3,4,4,5,5,6,6],"right_children":[2,4,6,8,10,12,14,-1,-1,-1,-1,-1,-1,-1,-1],"split_conditions":[8.505745E0,1.8447626E0,4.135165E0,4.1130395E0,8.6610155E0,9.207666E0,9.283186E0,5.1003005E-2,3.6760947E-1,-1.9108152E-1,2.10676E-1,2.2710148E-1,-3.035125E-1,4.8030114E-1,9.3716013E-1],"split_indices":[3,1,2,0,0,1,0,0,0,0,0,0,0,0,0],"split_type":[0,0,0,0,0,0,0,0,0,0,0,0,0,0,0],"sum_hessian":[9E2,7.76E2,1.24E2,1.57E2,6.19E2,5.8E1,6.6E1,7.2E1,8.5E1,5.28E2,9.1E1,5.1E1,7E0,5.7E1,9E0],"tree_param":{"num_deleted":"0","num_feature":"5","num_nodes":"15","size_leaf_vector":"1"}},{"base_weights":[4.4516632E-3,-3.1410434E0,6.419327E-1,-1.882575E0,-5.326296E0,-9.3439466E-1,1.8495581E0,-3.8021427E-1,-5.4926515E-2,-6.403704E-1,-2.299881E-1,-2.175998E-1,8.8369146E-2,4.263923E-1,1.1129476E-1],"categories":[],"categories_nodes":[],"categories_segments":[],"categories_sizes":[],"default_left":[0,0,0,0,0,0,0,0,0,0,0,0,0,0,0],"id":21,"left_children":[1,3,5,7,9,11,13,-1,-1,-1,-1,-1,-1,-1,-1],"loss_changes":[1.8086958E3,4.0798364E2,1.429438E3,2.4873074E2,1.6460999E2,7.3781635E2,7.510941E2,0E0,0E0,0E0,0E0,0E0,0E0,0E0,0E0],"parents":[2147483647,0,0,1,1,2,2,3,3,4,4,5,5,6,6],"right_children":[2,4,6,8,10,12,14,-1,-1,-1,-1,-1,-1,-1,-1],"split_conditions":[1.6336676E0,5.9359245E0,4.073655E0,4.361265E0,7.8517594E0,6.0244946E0,2.009337E0,-3.8021427E-1,-5.4926515E-2,-6.403704E-1,-2.299881E-1,-2.175998E-1,8.8369146E-2,4.263923E-1,1.1129476E-1],"split_indices":[3,1,0,0,0,2,1,0,0,0,0,0,0,0,0],"split_type":[0,0,0,0,0,0,0,0,0,0,0,0,0,0,0],"sum_hessian":[9E2,1.51E2,7.49E2,9.7E1,5.4E1,3.25E2,4.24E2,3.9E1,5.8E1,3.9E1,1.5E1,1.93E2,1.32E2,9.8E1,3.26E2],"tree_param":{"num_deleted":"0","num_feature":"5","num_nodes":"15","size_leaf_vector":"1"}},{"base_weights":[3.0108495E-3,-7.145091E-1,2.4272385E0,-2.6269915E0,1.9270135E-1,3.5607626E0,7.385396E-1,-5.211868E-1,-1.9297093E-1,2.0758545E-1,-8.323126E-2,3.001879E-1,8.480281E-1,-2.8982485E-2,2.6988798E-1],"categories":[],"categories_nodes":[],"categories_segments":[],"categories_sizes":[],"default_left":[0,0,0,0,0,0,0,0,0,0,0,0,0,0,0],"id":22,"left_children":[1,3,5,7,9,11,13,-1,-1,-1,-1,-1,-1,-1,-1],"loss_changes":[1.5689623E3,1.2080829E3,3.9169153E2,3.936776E2,9.1474005E2,3.1272412E2,1.701215E2,0E0,0E0,0E0,0E0,0E0,0E0,0E0,0E0],"parents":[2147483647,0,0,1,1,2,2,3,3,4,4,5,5,6,6],"right_children":[2,4,6,8,10,12,14,-1,-1,-1,-1,-1,-1,-1,-1],"split_conditions":[7.6585865E0,3.3089802E0,6.311386E0,1.2429723E0,3.2337155E0,9.283186E0,6.6252227E0,-5.211868E-1,-1.9297093E-1,2.0758545E-1,-8.323126E-2,3.001879E-1,8.480281E-1,-2.8982485E-2,2.6988798E-1],"split_indices":[3,2,4,3,1,0,0,0,0,0,0,0,0,0,0],"split_type":[0,0,0,0,0,0,0,0,0,0,0,0,0,0,0],"sum_hessian":[9E2,6.95E2,2.05E2,2.23E2,4.72E2,1.22E2,8.3E1,4.6E1,1.77E2,1.66E2,3.06E2,1.11E2,1.1E1,5.5E1,2.8E1],"tree_param":{"num_deleted":"0","num_feature":"5","num_nodes":"15","size_leaf_vector":"1"}},{"base_weights":[3.5968062E-3,-4.3042687E-1,3.4456697E0,-2.0971334E0,4.7922316E-1,1.4658782E0,5.0103974E0,-4.4689623E-1,-1.3976143E-1,1.7715125E-1,-9.1836624E-2,2.4170427E-1,-1.4799102E-2,4.458073E-1,8.8700867E-1],"categories":[],"categories_nodes":[],"categories_segments":[],"categories_sizes":[],"default_left":[0,0,0,0,0,0,0,0,0,0,0,0,0,0,0],"id":23,"left_children":[1,3,5,7,9,11,13,-1,-1,-1,-1,-1,-1,-1,-1],"loss_changes":[1.347524E3,1.2154169E3,3.0553662E2,4.6329065E2,9.389876E2,7.097024E1,7.98374E1,0E0,0E0,0E0,0E0,0E0,0E0,0E0,0E0],"parents":[2147483647,0,0,1,1,2,2,3,3,4,4,5,5,6,6],"right_children":[2,4,6,8,10,12,14,-1,-1,-1,-1,-1,-1,-1,-1],"split_conditions":[8.955628E0,3.50915E0,4.3052936E0,2.319471E0,5.4455533E0,5.5399327E0,9.213075E0,-4.4689623E-1,-1.3976143E-1,1.7715125E-1,-9.1836624E-2,2.4170427E-1,-1.4799102E-2,4.458073E-1,8.8700867E-1],"split_indices":[0,3,2,0,4,1,3,0,0,0,0,0,0,0,0],"split_type":[0,0,0,0,0,0,0,0,0,0,0,0,0,0,0],"sum_hessian":[9E2,8E2,1E2,2.82E2,5.18E2,4.5E1,5.5E1,6.3E1,2.19E2,2.69E2,2.49E2,2.8E1,1.7E1,5E1,5E0],"tree_param":{"num_deleted":"0","num_feature":"5","num_nodes":"15","size_leaf_vector":"1"}},{"base_weights":[4.411767E-3,-1.0677387E0,1.2967486E0,-2.8402772E0,-1.0911911E-1,3.5429525E0,5.4866564E-1,-3.718143E-1,-9.3976885E-2,-1.1655283E-1,1.3364781E-1,-1.226749E-1,3.961935E-1,-1.4686475E-2,2.7500305E-1],"categories":[],"categories_nodes":[],"categories_segments":[],"categories_sizes":[],"default_left":[0,0,0,0,0,0,0,0,0,0,0,0,0,0,0],"id":24,"left_children":[1,3,5,7,9,11,13,-1,-1,-1,-1,-1,-1,-1,-1],"loss_changes":[1.2497917E3,8.3739075E2,6.8531793E2,2.8513757E2,4.9177032E2,2.0869934E2,4.7198764E2,0E0,0E0,0E0,0E0,0E0,0E0,0E0,0E0],"parents":[2147483647,0,0,1,1,2,2,3,3,4,4,5,5,6,6],"right_children":[2,4,6,8,10,12,14,-1,-1,-1,-1,-1,-1,-1,-1],"split_conditions":[5.5250096E0,3.4882054E0,1.8177887E0,6.4181952E0,5.8873153E0,6.904591E-1,7.655129E0,-3.718143E-1,-9.3976885E-2,-1.1655283E-1,1.3364781E-1,-1.226749E-1,3.961935E-1,-1.4686475E-2,2.7500305E-1],"split_indices":[2,0,1,3,3,0,0,0,0,0,0,0,0,0,0],"split_type":[0,0,0,0,0,0,0,0,0,0,0,0,0,0,0],"sum_hessian":[9E2,4.92E2,4.08E2,1.72E2,3.2E2,1.01E2,3.07E2,1.17E2,5.5E1,1.85E2,1.35E2,8E0,9.3E1,2.34E2,7.3E1],"tree_param":{"num_deleted":"0","num_feature":"5","num_nodes":"15","size_leaf_vector":"1"}},{"base_weights":[4.065076E-3,-4.5556602E-1,2.7582572E0,-2.816539E0,1.1270566E-1,1.1308054E0,4.071798E0,-4.3004915E-1,-1.662197E-1,-1.7913924E-1,7.842539E-2,1.6794424E-1,-2.5766864E-1,3.5052445E-2,4.4733354E-1],"categories":[],"categories_nodes":[],"categories_segments":[],"categories_sizes":[],"default_left":[0,0,0,0,0,0,0,0,0,0,0,0,0,0,0],"id":25,"left_children":[1,3,5,7,9,11,13,-1,-1,-1,-1,-1,-1,-1,-1],"loss_changes":[1.1418435E3,1.0374315E3,2.711621E2,2.4980005E2,7.993098E2,1.2433737E2,1.0452234E2,0E0,0E0,0E0,0E0,0E0,0E0,0E0,0E0],"parents":[2147483647,0,0,1,1,2,2,3,3,4,4,5,5,6,6],"right_children":[2,4,6,8,10,12,14,-1,-1,-1,-1,-1,-1,-1,-1],"split_conditions":[8.469688E0,1.8283778E0,4.135165E0,4.6866064E0,2.7340708E0,9.207666E0,5.961732E-1,-4.3004915E-1,-1.662197E-1,-1.7913924E-1,7.842539E-2,1.6794424E-1,-2.5766864E-1,3.5052445E-2,4.4733354E-1],"split_indices":[3,0,2,2,2,1,0,0,0,0,0,0,0,0,0],"split_type":[0,0,0,0,0,0,0,0,0,0,0,0,0,0,0],"sum_hessian":[9E2,7.72E2,1.28E2,1.49E2,6.23E2,5.8E1,7E1,6.4E1,8.5E1,1.62E2,4.61E2,5.1E1,7E0,7E0,6.3E1],"tree_param":{"num_deleted":"0","num_feature":"5","num_nodes":"15","size_leaf_vector":"1"}},{"base_weights":[3.3209503E-3,-2.7862027E0,4.3549642E-1,1.8860589E0,-3.2241187E0,1.2909696E0,-9.859541E-1,-8.9328006E-2,2.6029432E-1,-4.758974E-1,-2.1055208E-1,7.79127E-2,3.515392E-1,3.409297E-2,-2.1302398E-1],"categories":[],"categories_nodes":[],"categories_segments":[],"categories_sizes":[],"default_left":[0,0,0,0,0,0,0,0,0,0,0,0,0,0,0],"id":26,"left_children":[1,3,5,7,9,11,13,-1,-1,-1,-1,-1,-1,-1,-1],"loss_changes":[1.0874263E3,2.5365387E2,9.509789E2,2.4242268E1,1.805542E2,5.528755E2,4.4711646E2,0E0,0E0,0E0,0E0,0E0,0E0,0E0,0E0],"parents":[2147483647,0,0,1,1,2,2,3,3,4,4,5,5,6,6],"right_children":[2,4,6,8,10,12,14,-1,-1,-1,-1,-1,-1,-1,-1],"split_conditions":[1.2429723E0,9.2066985E-1,6.3467126E0,1.3682415E-1,4.4203343E0,8.244715E0,4.981957E0,-8.9328006E-2,2.6029432E-1,-4.758974E-1,-2.1055208E-1,7.79127E-2,3.515392E-1,3.409297E-2,-2.1302398E-1],"split_indices":[3,1,1,1,0,0,4,0,0,0,0,0,0,0,0],"split_type":[0,0,0,0,0,0,0,0,0,0,0,0,0,0,0],"sum_hessian":[9E2,1.2E2,7.8E2,1E1,1.1E2,4.87E2,2.93E2,2E0,8E0,4.5E1,6.5E1,3.97E2,9E1,1.36E2,1.57E2],"tree_param":{"num_deleted":"0","num_feature":"5","num_nodes":"15","size_leaf_vector":"1"}},{"base_weights":[2.6947448E-3,1.9404807E0,-5.282843E-1,3.1571536E0,9.2171717E-1,-3.0149515E0,-1.2384442E-1,2.0762327E-1,5.284674E-1,1.0068688E-2,3.126534E-1,-4.8050496E-1,-2.1282148E-1,-1.0462492E-1,1.0262256E-1],"categories":[],"categories_nodes":[],"categories_segments":[],"categories_sizes":[],"default_left":[0,0,0,0,0,0,0,0,0,0,0,0,0,0,0],"id":27,"left_children":[1,3,5,7,9,11,13,-1,-1,-1,-1,-1,-1,-1,-1],"loss_changes":[9.280854E2,2.3755334E2,7.116674E2,1.9139978E2,1.9337888E2,1.4692108E2,6.4818005E2,0E0,0E0,0E0,0E0,0E0,0E0,0E0,0E0],"parents":[2147483647,0,0,1,1,2,2,3,3,4,4,5,5,6,6],"right_children":[2,4,6,8,10,12,14,-1,-1,-1,-1,-1,-1,-1,-1],"split_conditions":[1.8447626E0,4.739212E0,1.2429723E0,6.722507E0,7.925951E0,2.3906639E0,5.495289E0,2.0762327E-1,5.284674E-1,1.0068688E-2,3.126534E-1,-4.8050496E-1,-2.1282148E-1,-1.0462492E-1,1.0262256E-1],"split_indices":[1,4,3,2,0,2,0,0,0,0,0,0,0,0,0],"split_type":[0,0,0,0,0,0,0,0,0,0,0,0,0,0,0],"sum_hessian":[9E2,1.93E2,7.07E2,8.7E1,1.06E2,9.8E1,6.09E2,5.9E1,2.8E1,7.8E1,2.8E1,3.1E1,6.7E1,3.38E2,2.71E2],"tree_param":{"num_deleted":"0","num_feature":"5","num_nodes":"15","size_leaf_vector":"1"}},{"base_weights":[2.8287794E-3,-3.5179394E-1,2.723849E0,4.10776E-1,-1.6395324E0,9.156454E-1,3.8860824E0,-1.21029474E-1,1.0598662E-1,-2.3809898E-1,-1.9869715E-2,2.4919549E-1,-5.237668E-3,2.6123002E-1,4.71057E-1],"categories":[],"categories_nodes":[],"categories_segments":[],"categories_sizes":[],"default_left":[0,0,0,0,0,0,0,0,0,0,0,0,0,0,0],"id":28,"left_children":[1,3,5,7,9,11,13,-1,-1,-1,-1,-1,-1,-1,-1],"loss_changes":[8.7036523E2,7.84302E2,2.1500348E2,5.294978E2,3.168172E2,6.4218414E1,5.3858215E1,0E0,0E0,0E0,0E0,0E0,0E0,0E0,0E0],"parents":[2147483647,0,0,1,1,2,2,3,3,4,4,5,5,6,6],"right_children":[2,4,6,8,10,12,14,-1,-1,-1,-1,-1,-1,-1,-1],"split_conditions":[8.773394E0,6.3467126E0,2.9191117E0,3.055243E0,6.493223E0,4.626756E0,9.317404E0,-1.21029474E-1,1.0598662E-1,-2.3809898E-1,-1.9869715E-2,2.4919549E-1,-5.237668E-3,2.6123002E-1,4.71057E-1],"split_indices":[3,1,2,2,0,4,3,0,0,0,0,0,0,0,0],"split_type":[0,0,0,0,0,0,0,0,0,0,0,0,0,0,0],"sum_hessian":[9E2,7.97E2,1.03E2,5.01E2,2.96E2,4.1E1,6.2E1,1.43E2,3.58E2,1.95E2,1.01E2,1.5E1,2.6E1,2.6E1,3.6E1],"tree_param":{"num_deleted":"0","num_feature":"5","num_nodes":"15","size_leaf_vector":"1"}},{"base_weights":[3.325919E-3,-2.2036216E0,3.9176738E-1,-3.3103561E0,-8.067576E-1,-2.018087E0,7.686244E-1,-2.657502E-1,-5.09469E-1,6.067511E-3,-2.4618998E-1,-1.1767403E-1,-3.7156615E-1,1.6825138E-1,-2.1906447E-2],"categories":[],"categories_nodes":[],"categories_segments":[],"categories_sizes":[],"default_left":[0,0,0,0,0,0,0,0,0,0,0,0,0,0,0],"id":29,"left_children":[1,3,5,7,9,11,13,-1,-1,-1,-1,-1,-1,-1,-1],"loss_changes":[7.7326355E2,2.0603363E2,6.9811804E2,7.382904E1,8.772858E1,1.4416547E2,5.997204E2,0E0,0E0,0E0,0E0,0E0,0E0,0E0,0E0],"parents":[2147483647,0,0,1,1,2,2,3,3,4,4,5,5,6,6],"right_children":[2,4,6,8,10,12,14,-1,-1,-1,-1,-1,-1,-1,-1],"split_conditions":[1.4299169E0,5.8873153E0,1.163664E0,7.709122E0,6.5675607E0,6.613706E0,5.5204716E0,-2.657502E-1,-5.09469E-1,6.067511E-3,-2.4618998E-1,-1.1767403E-1,-3.7156615E-1,1.6825138E-1,-2.1906447E-2],"split_indices":[0,3,3,1,4,1,4,0,0,0,0,0,0,0,0],"split_type":[0,0,0,0,0,0,0,0,0,0,0,0,0,0,0],"sum_hessian":[9E2,1.34E2,7.66E2,7.4E1,6E1,1.03E2,6.63E2,5.6E1,1.8E1,4E1,2E1,7E1,3.3E1,3.44E2,3.19E2],"tree_param":{"num_deleted":"0","num_feature":"5","num_nodes":"15","size_leaf_vector":"1"}},{"base_weights":[1.485993E-3,-8.137028E-1,9.840938E-1,-1.8802589E-1,-2.270936E0,2.2319996E0,1.8966699E-1,-1.4529942E-1,5.074167E-2,-3.1747955E-1,-6.3875824E-2,2.0224378E-3,2.767506E-1,-6.1630547E-2,1.542369E-1],"categories":[],"categories_nodes":[],"categories_segments":[],"categories_sizes":[],"default_left":[0,0,0,0,0,0,0,0,0,0,0,0,0,0,0],"id":30,"left_children":[1,3,5,7,9,11,13,-1,-1,-1,-1,-1,-1,-1,-1],"loss_changes":[7.2251154E2,4.4906927E2,4.050469E2,3.051179E2,2.1631049E2,1.8826678E2,2.7460095E2,0E0,0E0,0E0,0E0,0E0,0E0,0E0,0E0],"parents":[2147483647,0,0,1,1,2,2,3,3,4,4,5,5,6,6],"right_children":[2,4,6,8,10,12,14,-1,-1,-1,-1,-1,-1,-1,-1],"split_conditions":[5.5250096E0,6.918952E0,3.9850473E0,3.8872635E0,5.8873153E0,2.182539E0,6.424193E0,-1.4529942E-1,5.074167E-2,-3.1747955E-1,-6.3875824E-2,2.0224378E-3,2.767506E-1,-6.1630547E-2,1.542369E-1],"split_indices":[2,1,4,0,3,3,0,0,0,0,0,0,0,0,0],"split_type":[0,0,0,0,0,0,0,0,0,0,0,0,0,0,0],"sum_hessian":[9E2,4.92E2,4.08E2,3.45E2,1.47E2,1.58E2,2.5E2,1.22E2,2.23E2,9.4E1,5.3E1,3.1E1,1.27E2,1.57E2,9.3E1],"tree_param":{"num_deleted":"0","num_feature":"5","num_nodes":"15","size_leaf_vector":"1"}},{"base_weights":[1.221187E-3,-3.0607557E-1,2.3591213E0,-9.80569E-1,7.367123E-1,8.293104E-1,3.3415487E0,-3.7332285E-2,-2.2232667E-1,-2.0237325E-1,1.0902581E-1,2.1395698E-1,2.21452E-3,3.4705702E-2,3.593711E-1],"categories":[],"categories_nodes":[],"categories_segments":[],"categories_sizes":[],"default_left":[0,0,0,0,0,0,0,0,0,0,0,0,0,0,0],"id":31,"left_children":[1,3,5,7,9,11,13,-1,-1,-1,-1,-1,-1,-1,-1],"loss_changes":[6.5356415E2,5.6199854E2,1.5353339E2,3.6516232E2,3.0865274E2,4.4371647E1,4.6323914E1,0E0,0E0,0E0,0E0,0E0,0E0,0E0,0E0],"parents":[2147483647,0,0,1,1,2,2,3,3,4,4,5,5,6,6],"right_children":[2,4,6,8,10,12,14,-1,-1,-1,-1,-1,-1,-1,-1],"split_conditions":[8.773394E0,6.15013E0,2.9191117E0,6.878857E0,1.175513E0,4.626756E0,5.961732E-1,-3.7332285E-2,-2.2232667E-1,-2.0237325E-1,1.0902581E-1,2.1395698E-1,2.21452E-3,3.4705702E-2,3.593711E-1],"split_indices":[3,2,2,1,0,4,0,0,0,0,0,0,0,0,0],"split_type":[0,0,0,0,0,0,0,0,0,0,0,0,0,0,0],"sum_hessian":[9E2,7.97E2,1.03E2,4.84E2,3.13E2,4.1E1,6.2E1,3.26E2,1.58E2,3.5E1,2.78E2,1.5E1,2.6E1,5E0,5.7E1],"tree_param":{"num_deleted":"0","num_feature":"5","num_nodes":"15","size_leaf_vector":"1"}},{"base_weights":[1.3845515E-3,-3.148969E-1,2.165838E0,1.0433402E0,-8.8802433E-1,1.0954555E0,3.0016823E0,-8.9064695E-2,1.422841E-1,-1.3727313E-1,5.973447E-2,-2.021708E-1,1.397338E-1,1.4323585E-1,3.7896055E-1],"categories":[],"categories_nodes":[],"categories_segments":[],"categories_sizes":[],"default_left":[0,0,0,0,0,0,0,0,0,0,0,0,0,0,0],"id":32,"left_children":[1,3,5,7,9,11,13,-1,-1,-1,-1,-1,-1,-1,-1],"loss_changes":[6.174855E2,6.1356104E2,9.959924E1,1.7301149E2,3.9968274E2,5.17579E1,7.3708374E1,0E0,0E0,0E0,0E0,0E0,0E0,0E0,0E0],"parents":[2147483647,0,0,1,1,2,2,3,3,4,4,5,5,6,6],"right_children":[2,4,6,8,10,12,14,-1,-1,-1,-1,-1,-1,-1,-1],"split_conditions":[8.844788E0,2.739881E0,4.3052936E0,1.6336676E0,7.5211434E0,4.522729E-1,9.303985E0,-8.9064695E-2,1.422841E-1,-1.3727313E-1,5.973447E-2,-2.021708E-1,1.397338E-1,1.4323585E-1,3.7896055E-1],"split_indices":[0,4,2,3,3,3,0,0,0,0,0,0,0,0,0],"split_type":[0,0,0,0,0,0,0,0,0,0,0,0,0,0,0],"sum_hessian":[9E2,7.86E2,1.14E2,2.33E2,5.53E2,5.1E1,6.3E1,3.8E1,1.95E2,4.17E2,1.36E2,4E0,4.7E1,2.2E1,4.1E1],"tree_param":{"num_deleted":"0","num_feature":"5","num_nodes":"15","size_leaf_vector":"1"}},{"base_weights":[1.7295051E-3,1.5081894E0,-4.1105998E-1,1.1907843E0,3.9355936E0,-1.5401108E0,1.3894184E-1,2.5256425E-2,1.9406842E-1,5.5911154E-1,2.0900658E-1,-2.2481118E-1,-4.5774277E-2,9.439189E-2,-7.4431784E-2],"categories":[],"categories_nodes":[],"categories_segments":[],"categories_sizes":[],"default_left":[0,0,0,0,0,0,0,0,0,0,0,0,0,0,0],"id":33,"left_children":[1,3,5,7,9,11,13,-1,-1,-1,-1,-1,-1,-1,-1],"loss_changes":[5.609076E2,1.4478482E2,4.3986792E2,1.2122768E2,5.5531036E1,1.7675653E2,3.3985138E2,0E0,0E0,0E0,0E0,0E0,0E0,0E0,0E0],"parents":[2147483647,0,0,1,1,2,2,3,3,4,4,5,5,6,6],"right_children":[2,4,6,8,10,12,14,-1,-1,-1,-1,-1,-1,-1,-1],"split_conditions":[1.8447626E0,9.303985E0,3.175868E0,4.8785405E0,5.277011E0,6.195262E0,5.5204716E0,2.5256425E-2,1.9406842E-1,5.5911154E-1,2.0900658E-1,-2.2481118E-1,-4.5774277E-2,9.439189E-2,-7.4431784E-2],"split_indices":[1,0,3,2,4,0,4,0,0,0,0,0,0,0,0],"split_type":[0,0,0,0,0,0,0,0,0,0,0,0,0,0,0],"sum_hessian":[9E2,1.93E2,7.07E2,1.72E2,2.1E1,2.31E2,4.76E2,7.7E1,9.5E1,1E1,1.1E1,1.39E2,9.2E1,2.49E2,2.27E2],"tree_param":{"num_deleted":"0","num_feature":"5","num_nodes":"15","size_leaf_vector":"1"}},{"base_weights":[2.3743375E-3,-1.7680259E0,3.1398016E-1,-2.6146896E0,-6.661181E-1,-1.1344609E0,7.377424E-1,-2.0845728E-1,-4.095326E-1,-5.100121E-3,-2.0985575E-1,-1.5585501E-1,5.943091E-2,1.5318184E-1,3.9033026E-3],"categories":[],"categories_nodes":[],"categories_segments":[],"categories_sizes":[],"default_left":[0,0,0,0,0,0,0,0,0,0,0,0,0,0,0],"id":34,"left_children":[1,3,5,7,9,11,13,-1,-1,-1,-1,-1,-1,-1,-1],"loss_changes":[4.9760712E2,1.2420599E2,4.7161743E2,5.111615E1,5.2760025E1,1.2849486E2,3.2950824E2,0E0,0E0,0E0,0E0,0E0,0E0,0E0,0E0],"parents":[2147483647,0,0,1,1,2,2,3,3,4,4,5,5,6,6],"right_children":[2,4,6,8,10,12,14,-1,-1,-1,-1,-1,-1,-1,-1],"split_conditions":[1.4299169E0,6.0315013E0,2.1789255E0,7.709122E0,6.596903E0,8.259323E0,4.626756E0,-2.0845728E-1,-4.095326E-1,-5.100121E-3,-2.0985575E-1,-1.5585501E-1,5.943091E-2,1.5318184E-1,3.9033026E-3],"split_indices":[0,3,2,1,4,3,4,0,0,0,0,0,0,0,0],"split_type":[0,0,0,0,0,0,0,0,0,0,0,0,0,0,0],"sum_hessian":[9E2,1.34E2,7.66E2,7.5E1,5.9E1,1.73E2,5.93E2,5.7E1,1.8E1,4.2E1,1.7E1,1.39E2,3.4E1,2.77E2,3.16E2],"tree_param":{"num_deleted":"0","num_feature":"5","num_nodes":"15","size_leaf_vector":"1"}},{"base_weights":[1.2800274E-3,-1.0383656E0,4.8397055E-1,-5.2516985E-1,-2.4001546E0,-2.4831854E-1,1.2764734E0,-1.5377738E-1,2.3865951E-2,-2.8852245E-1,-8.491904E-2,2.2650218E-2,-1.6815472E-1,1.9220491E-1,2.2895738E-2],"categories":[],"categories_nodes":[],"categories_segments":[],"categories_sizes":[],"default_left":[0,0,0,0,0,0,0,0,0,0,0,0,0,0,0],"id":35,"left_children":[1,3,5,7,9,11,13,-1,-1,-1,-1,-1,-1,-1,-1],"loss_changes":[4.5264877E2,1.9861472E2,3.578071E2,1.6201942E2,5.6231384E1,2.1882994E2,1.9973022E2,0E0,0E0,0E0,0E0,0E0,0E0,0E0,0E0],"parents":[2147483647,0,0,1,1,2,2,3,3,4,4,5,5,6,6],"right_children":[2,4,6,8,10,12,14,-1,-1,-1,-1,-1,-1,-1,-1],"split_conditions":[3.175868E0,6.9701576E0,5.1209307E0,4.361265E0,7.8517594E0,7.8961816E0,6.314588E0,-1.5377738E-1,2.3865951E-2,-2.8852245E-1,-8.491904E-2,2.2650218E-2,-1.6815472E-1,1.9220491E-1,2.2895738E-2],"split_indices":[3,1,2,0,0,1,4,0,0,0,0,0,0,0,0],"split_type":[0,0,0,0,0,0,0,0,0,0,0,0,0,0,0],"sum_hessian":[9E2,2.85E2,6.15E2,2.08E2,7.7E1,3.2E2,2.95E2,8.9E1,1.19E2,5.8E1,1.9E1,2.41E2,7.9E1,1.82E2,1.13E2],"tree_param":{"num_deleted":"0","num_feature":"5","num_nodes":"15","size_leaf_vector":"1"}},{"base_weights":[6.7055307E-4,-2.6375747E-1,1.8102721E0,8.2078254E-1,-7.2137225E-1,2.5195184E0,8.035422E-1,5.0816774E-2,2.709492E-1,-2.6693818E-1,-4.4331875E-2,-7.5865366E-2,2.7961233E-1,1.6033548E-1,9.2459535E-3],"categories":[],"categories_nodes":[],"categories_segments":[],"categories_sizes":[],"default_left":[0,0,0,0,0,0,0,0,0,0,0,0,0,0,0],"id":36,"left_children":[1,3,5,7,9,11,13,-1,-1,-1,-1,-1,-1,-1,-1],"loss_changes":[4.316144E2,3.911814E2,8.008768E1,1.3678572E2,2.9889117E2,6.2874176E1,2.7719666E1,0E0,0E0,0E0,0E0,0E0,0E0,0E0,0E0],"parents":[2147483647,0,0,1,1,2,2,3,3,4,4,5,5,6,6],"right_children":[2,4,6,8,10,12,14,-1,-1,-1,-1,-1,-1,-1,-1],"split_conditions":[8.844788E0,2.739881E0,5.313546E0,8.660639E0,1.163664E0,5.147875E-1,4.1972733E0,5.0816774E-2,2.709492E-1,-2.6693818E-1,-4.4331875E-2,-7.5865366E-2,2.7961233E-1,1.6033548E-1,9.2459535E-3],"split_indices":[0,4,1,3,3,3,4,0,0,0,0,0,0,0,0],"split_type":[0,0,0,0,0,0,0,0,0,0,0,0,0,0,0],"sum_hessian":[9E2,7.86E2,1.14E2,2.33E2,5.53E2,6.6E1,4.8E1,2.01E2,3.2E1,6.8E1,4.85E2,5E0,6.1E1,2.2E1,2.6E1],"tree_param":{"num_deleted":"0","num_feature":"5","num_nodes":"15","size_leaf_vector":"1"}},{"base_weights":[1.0293954E-3,1.2603233E0,-3.4403282E-1,2.3584943E0,7.510042E-1,-1.7081778E0,-3.1361815E-2,1.0027959E-1,3.3369336E-1,1.762275E-1,-1.1817089E-2,-2.395633E-1,-6.708235E-2,-8.527126E-2,5.0377917E-2],"categories":[],"categories_nodes":[],"categories_segments":[],"categories_sizes":[],"default_left":[0,0,0,0,0,0,0,0,0,0,0,0,0,0,0],"id":37,"left_children":[1,3,5,7,9,11,13,-1,-1,-1,-1,-1,-1,-1,-1],"loss_changes":[3.9194943E2,1.06736725E2,3.0192865E2,7.756827E1,1.1799039E2,9.252667E1,2.5404326E2,0E0,0E0,0E0,0E0,0E0,0E0,0E0,0E0],"parents":[2147483647,0,0,1,1,2,2,3,3,4,4,5,5,6,6],"right_children":[2,4,6,8,10,12,14,-1,-1,-1,-1,-1,-1,-1,-1],"split_conditions":[1.8447626E0,6.1349624E-1,1.6352388E0,5.02679E0,4.928196E0,6.3156023E0,3.5846572E0,1.0027959E-1,3.3369336E-1,1.762275E-1,-1.1817089E-2,-2.395633E-1,-6.708235E-2,-8.527126E-2,5.0377917E-2],"split_indices":[1,1,0,2,4,3,3,0,0,0,0,0,0,0,0],"split_type":[0,0,0,0,0,0,0,0,0,0,0,0,0,0,0],"sum_hessian":[9E2,1.93E2,7.07E2,6E1,1.33E2,1.31E2,5.76E2,2.6E1,3.4E1,6.1E1,7.2E1,7.8E1,5.3E1,2.27E2,3.49E2],"tree_param":{"num_deleted":"0","num_feature":"5","num_nodes":"15","size_leaf_vector":"1"}},{"base_weights":[1.2114913E-3,3.496737E-1,-1.1542217E0,5.8629924E-1,-1.8699365E0,-1.7416332E0,-1.24611765E-1,-7.927881E-2,9.109138E-2,-2.727599E-1,-3.1995907E-2,-2.7153137E-1,-1.08303204E-1,-2.8102908E-1,1.8410314E-2],"categories":[],"categories_nodes":[],"categories_segments":[],"categories_sizes":[],"default_left":[0,0,0,0,0,0,0,0,0,0,0,0,0,0,0],"id":38,"left_children":[1,3,5,7,9,11,13,-1,-1,-1,-1,-1,-1,-1,-1],"loss_changes":[3.6316852E2,3.6507132E2,1.2618713E2,2.8141232E2,8.8194244E1,8.234778E1,6.435878E1,0E0,0E0,0E0,0E0,0E0,0E0,0E0,0E0],"parents":[2147483647,0,0,1,1,2,2,3,3,4,4,5,5,6,6],"right_children":[2,4,6,8,10,12,14,-1,-1,-1,-1,-1,-1,-1,-1],"split_conditions":[7.8961816E0,8.956748E0,5.989785E0,1.7410934E0,5.495289E0,4.5005865E0,5.363479E-1,-7.927881E-2,9.109138E-2,-2.727599E-1,-3.1995907E-2,-2.7153137E-1,-1.08303204E-1,-2.8102908E-1,1.8410314E-2],"split_indices":[1,4,3,3,0,2,0,0,0,0,0,0,0,0,0],"split_type":[0,0,0,0,0,0,0,0,0,0,0,0,0,0,0],"sum_hessian":[9E2,6.92E2,2.08E2,6.26E2,6.6E1,1.32E2,7.6E1,1.19E2,5.07E2,4.2E1,2.4E1,5.2E1,8E1,7E0,6.9E1],"tree_param":{"num_deleted":"0","num_feature":"5","num_nodes":"15","size_leaf_vector":"1"}},{"base_weights":[5.2369065E-5,-8.919144E-1,4.291923E-1,-1.9001759E0,-4.498306E-1,-1.2943288E0,6.8853664E-1,-4.317197E-1,-1.6734372E-1,-7.3561706E-2,1.1181905E-1,-3.126392E-1,-7.120138E-2,4.935547E-2,3.2000515E-1],"categories":[],"categories_nodes":[],"categories_segments":[],"categories_sizes":[],"default_left":[0,0,0,0,0,0,0,0,0,0,0,0,0,0,0],"id":39,"left_children":[1,3,5,7,9,11,13,-1,-1,-1,-1,-1,-1,-1,-1],"loss_changes":[3.452663E2,1.2974593E2,2.7310535E2,4.1550354E1,9.2687E1,8.3121E1,2.5796164E2,0E0,0E0,0E0,0E0,0E0,0E0,0E0,0E0],"parents":[2147483647,0,0,1,1,2,2,3,3,4,4,5,5,6,6],"right_children":[2,4,6,8,10,12,14,-1,-1,-1,-1,-1,-1,-1,-1],"split_conditions":[3.3089802E0,3.0467913E0,1.175513E0,7.686207E-1,8.660639E0,2.8840544E0,9.213075E0,-4.317197E-1,-1.6734372E-1,-7.3561706E-2,1.1181905E-1,-3.126392E-1,-7.120138E-2,4.935547E-2,3.2000515E-1],"split_indices":[2,0,0,3,3,3,3,0,0,0,0,0,0,0,0],"split_type":[0,0,0,0,0,0,0,0,0,0,0,0,0,0,0],"sum_hessian":[9E2,2.92E2,6.08E2,8.8E1,2.04E2,7.9E1,5.29E2,6E0,8.2E1,1.73E2,3.1E1,1.8E1,6.1E1,4.92E2,3.7E1],"tree_param":{"num_deleted":"0","num_feature":"5","num_nodes":"15","size_leaf_vector":"1"}},{"base_weights":[-5.908569E-4,-3.6036372E-1,9.861745E-1,-7.989842E-1,5.5323505E-1,1.6205895E0,2.030245E-1,-1.02055095E-1,1.1546856E-1,1.4455068E-1,-2.6497055E-2,-1.5382314E-2,2.0740138E-1,5.5563547E-2,-1.881254E-1],"categories":[],"categories_nodes":[],"categories_segments":[],"categories_sizes":[],"default_left":[0,0,0,0,0,0,0,0,0,0,0,0,0,0,0],"id":40,"left_children":[1,3,5,7,9,11,13,-1,-1,-1,-1,-1,-1,-1,-1],"loss_changes":[3.202207E2,2.6532004E2,1.1940991E2,1.9467053E2,1.573463E2,1.07325745E2,8.115369E1,0E0,0E0,0E0,0E0,0E0,0E0,0E0,0E0],"parents":[2147483647,0,0,1,1,2,2,3,3,4,4,5,5,6,6],"right_children":[2,4,6,8,10,12,14,-1,-1,-1,-1,-1,-1,-1,-1],"split_conditions":[7.375823E0,6.6519723E0,5.402994E0,8.980543E0,4.928196E0,2.1399467E0,8.118067E0,-1.02055095E-1,1.1546856E-1,1.4455068E-1,-2.6497055E-2,-1.5382314E-2,2.0740138E-1,5.5563547E-2,-1.881254E-1],"split_indices":[0,2,1,3,4,2,4,0,0,0,0,0,0,0,0],"split_type":[0,0,0,0,0,0,0,0,0,0,0,0,0,0,0],"sum_hessian":[9E2,6.6E2,2.4E2,4.46E2,2.14E2,1.32E2,1.08E2,4.01E2,4.5E1,1.02E2,1.12E2,2.7E1,1.05E2,9.3E1,1.5E1],"tree_param":{"num_deleted":"0","num_feature":"5","num_nodes":"15","size_leaf_vector":"1"}},{"base_weights":[-3.199289E-4,3.0694494E-1,-1.019144E0,5.1423115E-1,-1.6374642E0,-1.5378945E0,-1.0988491E-1,-6.638262E-2,7.915001E-2,-2.0191048E-1,7.3979795E-2,-3.2307297E-1,-1.2619555E-1,-2.4598518E-1,1.602525E-2],"categories":[],"categories_nodes":[],"categories_segments":[],"categories_sizes":[],"default_left":[0,0,0,0,0,0,0,0,0,0,0,0,0,0,0],"id":41,"left_children":[1,3,5,7,9,11,13,-1,-1,-1,-1,-1,-1,-1,-1],"loss_changes":[2.8236984E2,2.8015515E2,9.8411835E1,2.0532791E2,6.2280136E1,5.8049835E1,4.927487E1,0E0,0E0,0E0,0E0,0E0,0E0,0E0,0E0],"parents":[2147483647,0,0,1,1,2,2,3,3,4,4,5,5,6,6],"right_children":[2,4,6,8,10,12,14,-1,-1,-1,-1,-1,-1,-1,-1],"split_conditions":[7.8961816E0,8.956748E0,5.989785E0,1.7410934E0,8.660639E0,1.2384603E0,5.363479E-1,-6.638262E-2,7.915001E-2,-2.0191048E-1,7.3979795E-2,-3.2307297E-1,-1.2619555E-1,-2.4598518E-1,1.602525E-2],"split_indices":[1,4,3,3,3,0,0,0,0,0,0,0,0,0,0],"split_type":[0,0,0,0,0,0,0,0,0,0,0,0,0,0,0],"sum_hessian":[9E2,6.92E2,2.08E2,6.26E2,6.6E1,1.32E2,7.6E1,1.19E2,5.07E2,5.7E1,9E0,1.7E1,1.15E2,7E0,6.9E1],"tree_param":{"num_deleted":"0","num_feature":"5","num_nodes":"15","size_leaf_vector":"1"}},{"base_weights":[-1.1695821E-3,-1.7151819E-1,1.7491771E0,8.854361E-1,-4.7135308E-1,2.3679388E0,6.389762E-1,-1.6482264E-1,1.05805896E-1,2.1480909E-1,-6.1705988E-2,-1.601188E-1,2.5626215E-1,2.1429391E-1,1.7369635E-2],"categories":[],"categories_nodes":[],"categories_segments":[],"categories_sizes":[],"default_left":[0,0,0,0,0,0,0,0,0,0,0,0,0,0,0],"id":42,"left_children":[1,3,5,7,9,11,13,-1,-1,-1,-1,-1,-1,-1,-1],"loss_changes":[2.689504E2,2.6091882E2,5.3442932E1,8.1344925E1,2.459765E2,4.3511932E1,2.062069E1,0E0,0E0,0E0,0E0,0E0,0E0,0E0,0E0],"parents":[2147483647,0,0,1,1,2,2,3,3,4,4,5,5,6,6],"right_children":[2,4,6,8,10,12,14,-1,-1,-1,-1,-1,-1,-1,-1],"split_conditions":[9.218742E0,2.167398E0,7.0647573E0,7.6979464E-1,5.182354E-1,4.522729E-1,5.182354E-1,-1.6482264E-1,1.05805896E-1,2.1480909E-1,-6.1705988E-2,-1.601188E-1,2.5626215E-1,2.1429391E-1,1.7369635E-2],"split_indices":[0,4,4,2,1,3,1,0,0,0,0,0,0,0,0],"split_type":[0,0,0,0,0,0,0,0,0,0,0,0,0,0,0],"sum_hessian":[9E2,8.21E2,7.9E1,1.81E2,6.4E2,5E1,2.9E1,1.1E1,1.7E2,3.3E1,6.07E2,2E0,4.8E1,6E0,2.3E1],"tree_param":{"num_deleted":"0","num_feature":"5","num_nodes":"15","size_leaf_vector":"1"}},{"base_weights":[-5.842345E-4,-1.2576059E0,2.2066545E-1,-1.6588962E0,-2.272789E-1,-3.7844878E-1,7.3241854E-1,-1.23759106E-1,-2.6041088E-1,-1.7443312E-3,-2.0589796E-1,-2.76124E-1,-1.6532183E-2,4.3670103E-2,1.8073791E-1],"categories":[],"categories_nodes":[],"categories_segments":[],"categories_sizes":[],"default_left":[0,0,0,0,0,0,0,0,0,0,0,0,0,0,0],"id":43,"left_children":[1,3,5,7,9,11,13,-1,-1,-1,-1,-1,-1,-1,-1],"loss_changes":[2.5085974E2,5.5440094E1,2.354383E2,3.5404785E1,1.4953968E1,1.7931781E2,1.3081497E2,0E0,0E0,0E0,0E0,0E0,0E0,0E0,0E0],"parents":[2147483647,0,0,1,1,2,2,3,3,4,4,5,5,6,6],"right_children":[2,4,6,8,10,12,14,-1,-1,-1,-1,-1,-1,-1,-1],"split_conditions":[1.568127E0,7.0723863E0,4.4203343E0,7.481839E0,9.429097E0,9.398194E-1,7.7092185E0,-1.23759106E-1,-2.6041088E-1,-1.7443312E-3,-2.0589796E-1,-2.76124E-1,-1.6532183E-2,4.3670103E-2,1.8073791E-1],"split_indices":[2,0,0,4,4,3,2,0,0,0,0,0,0,0,0],"split_type":[0,0,0,0,0,0,0,0,0,0,0,0,0,0,0],"sum_hessian":[9E2,1.34E2,7.66E2,9.6E1,3.8E1,3.53E2,4.13E2,6.8E1,2.8E1,3.5E1,3E0,2.8E1,3.25E2,3.25E2,8.8E1],"tree_param":{"num_deleted":"0","num_feature":"5","num_nodes":"15","size_leaf_vector":"1"}},{"base_weights":[-1.2584362E-3,-1.5663298E0,1.6368936E-1,-1.9675761E0,5.8799002E-2,-5.4934317E-1,5.1340115E-1,-2.658776E-1,-1.3337348E-1,1.4483637E-1,-5.8706153E-2,-1.2577535E-1,-1.6163848E-2,3.5506453E-2,2.629102E-1],"categories":[],"categories_nodes":[],"categories_segments":[],"categories_sizes":[],"default_left":[0,0,0,0,0,0,0,0,0,0,0,0,0,0,0],"id":44,"left_children":[1,3,5,7,9,11,13,-1,-1,-1,-1,-1,-1,-1,-1],"loss_changes":[2.3285413E2,5.6194305E1,2.0375644E2,2.6683563E1,1.7004648E1,7.367863E1,1.8264262E2,0E0,0E0,0E0,0E0,0E0,0E0,0E0,0E0],"parents":[2147483647,0,0,1,1,2,2,3,3,4,4,5,5,6,6],"right_children":[2,4,6,8,10,12,14,-1,-1,-1,-1,-1,-1,-1,-1],"split_conditions":[8.8600427E-1,8.292868E0,3.3089802E0,4.373907E-1,2.0642128E0,3.4548085E0,9.213075E0,-2.658776E-1,-1.3337348E-1,1.4483637E-1,-5.8706153E-2,-1.2577535E-1,-1.6163848E-2,3.5506453E-2,2.629102E-1],"split_indices":[0,3,2,0,4,3,3,0,0,0,0,0,0,0,0],"split_type":[0,0,0,0,0,0,0,0,0,0,0,0,0,0,0],"sum_hessian":[9E2,8.5E1,8.15E2,6.8E1,1.7E1,2.68E2,5.47E2,3.1E1,3.7E1,5E0,1.2E1,9.4E1,1.74E2,5.1E2,3.7E1],"tree_param":{"num_deleted":"0","num_feature":"5","num_nodes":"15","size_leaf_vector":"1"}},{"base_weights":[-1.3066527E-3,3.3385146E-1,-7.343864E-1,5.1582193E-1,-1.3092672E0,-1.1752335E0,7.164734E-2,2.8718973E-2,1.5994535E-1,-2.5383756E-1,-7.0714094E-2,-1.6638076E-1,-3.0451108E-2,-3.167995E-2,1.4809246E-1],"categories":[],"categories_nodes":[],"categories_segments":[],"categories_sizes":[],"default_left":[0,0,0,0,0,0,0,0,0,0,0,0,0,0,0],"id":45,"left_children":[1,3,5,7,9,11,13,-1,-1,-1,-1,-1,-1,-1,-1],"loss_changes":[2.2161874E2,1.8575577E2,1.00644745E2,1.3778687E2,4.4089867E1,7.734386E1,5.5759514E1,0E0,0E0,0E0,0E0,0E0,0E0,0E0,0E0],"parents":[2147483647,0,0,1,1,2,2,3,3,4,4,5,5,6,6],"right_children":[2,4,6,8,10,12,14,-1,-1,-1,-1,-1,-1,-1,-1],"split_conditions":[6.918952E0,9.000231E0,5.989785E0,7.9915795E0,2.9805222E0,6.6314626E0,7.078351E0,2.8718973E-2,1.5994535E-1,-2.5383756E-1,-7.0714094E-2,-1.6638076E-1,-3.0451108E-2,-3.167995E-2,1.4809246E-1],"split_indices":[1,4,3,2,0,2,2,0,0,0,0,0,0,0,0],"split_type":[0,0,0,0,0,0,0,0,0,0,0,0,0,0,0],"sum_hessian":[9E2,6.18E2,2.82E2,5.57E2,6.1E1,1.82E2,1E2,4.61E2,9.6E1,1.9E1,4.2E1,1.16E2,6.6E1,7.9E1,2.1E1],"tree_param":{"num_deleted":"0","num_feature":"5","num_nodes":"15","size_leaf_vector":"1"}},{"base_weights":[-1.4163944E-3,4.865193E-1,-4.66114E-1,1.2788476E-1,1.359692E0,1.8381006E0,-6.246829E-1,-1.8532412E-1,3.290243E-2,2.484266E-1,9.429002E-2,3.81152E-2,2.4443571E-1,-1.0136123E-1,3.309911E-2],"categories":[],"categories_nodes":[],"categories_segments":[],"categories_sizes":[],"default_left":[0,0,0,0,0,0,0,0,0,0,0,0,0,0,0],"id":46,"left_children":[1,3,5,7,9,11,13,-1,-1,-1,-1,-1,-1,-1,-1],"loss_changes":[2.0452182E2,1.3761206E2,1.6995229E2,1.2533486E2,5.7652878E1,2.5566856E1,1.6127713E2,0E0,0E0,0E0,0E0,0E0,0E0,0E0,0E0],"parents":[2147483647,0,0,1,1,2,2,3,3,4,4,5,5,6,6],"right_children":[2,4,6,8,10,12,14,-1,-1,-1,-1,-1,-1,-1,-1],"split_conditions":[4.928196E0,6.796473E0,5.182354E-1,5.773216E-1,2.487918E0,4.7852836E0,7.2003655E0,-1.8532412E-1,3.290243E-2,2.484266E-1,9.429002E-2,3.81152E-2,2.4443571E-1,-1.0136123E-1,3.309911E-2],"split_indices":[4,2,1,3,1,2,3,0,0,0,0,0,0,0,0],"split_type":[0,0,0,0,0,0,0,0,0,0,0,0,0,0,0],"sum_hessian":[9E2,4.39E2,4.61E2,3.12E2,1.27E2,2.9E1,4.32E2,2.8E1,2.84E2,3.3E1,9.4E1,9E0,2E1,3.07E2,1.25E2],"tree_param":{"num_deleted":"0","num_feature":"5","num_nodes":"15","size_leaf_vector":"1"}},{"base_weights":[-8.25771E-4,-1.7829916E-1,1.1783265E0,7.1244353E-1,-4.411121E-1,1.6635219E0,5.305106E-1,9.534082E-2,-7.422106E-2,1.6354954E-1,-5.5591267E-2,2.3990135E-1,7.8410886E-2,2.5285607E-2,1.5424179E-1],"categories":[],"categories_nodes":[],"categories_segments":[],"categories_sizes":[],"default_left":[0,0,0,0,0,0,0,0,0,0,0,0,0,0,0],"id":47,"left_children":[1,3,5,7,9,11,13,-1,-1,-1,-1,-1,-1,-1,-1],"loss_changes":[1.887607E2,1.8384764E2,3.6206924E1,6.345076E1,1.4537701E2,4.1454575E1,1.4219942E1,0E0,0E0,0E0,0E0,0E0,0E0,0E0,0E0],"parents":[2147483647,0,0,1,1,2,2,3,3,4,4,5,5,6,6],"right_children":[2,4,6,8,10,12,14,-1,-1,-1,-1,-1,-1,-1,-1],"split_conditions":[8.799147E0,2.167398E0,6.314588E0,8.742226E0,5.182354E-1,5.185617E0,8.165995E0,9.534082E-2,-7.422106E-2,1.6354954E-1,-5.5591267E-2,2.3990135E-1,7.8410886E-2,2.5285607E-2,1.5424179E-1],"split_indices":[0,4,4,1,1,1,2,0,0,0,0,0,0,0,0],"split_type":[0,0,0,0,0,0,0,0,0,0,0,0,0,0,0],"sum_hessian":[9E2,7.83E2,1.17E2,1.78E2,6.05E2,6.6E1,5.1E1,1.53E2,2.5E1,3.1E1,5.74E2,3.5E1,3.1E1,4.1E1,1E1],"tree_param":{"num_deleted":"0","num_feature":"5","num_nodes":"15","size_leaf_vector":"1"}},{"base_weights":[-4.7229107E-5,-1.378121E0,1.45191E-1,-1.738159E0,-1.03087805E-1,3.205056E-1,-9.5964813E-1,-6.224541E-2,-2.021129E-1,1.1427273E-1,-5.9454132E-2,-1.254239E-1,4.530562E-2,-1.5514806E-1,2.6117393E-3],"categories":[],"categories_nodes":[],"categories_segments":[],"categories_sizes":[],"default_left":[0,0,0,0,0,0,0,0,0,0,0,0,0,0,0],"id":48,"left_children":[1,3,5,7,9,11,13,-1,-1,-1,-1,-1,-1,-1,-1],"loss_changes":[1.8053433E2,3.9299988E1,1.5836221E2,1.9894592E1,1.2924602E1,1.477252E2,6.538221E1,0E0,0E0,0E0,0E0,0E0,0E0,0E0,0E0],"parents":[2147483647,0,0,1,1,2,2,3,3,4,4,5,5,6,6],"right_children":[2,4,6,8,10,12,14,-1,-1,-1,-1,-1,-1,-1,-1],"split_conditions":[8.8600427E-1,8.218309E0,8.779743E0,2.6982071E0,2.0642128E0,6.535634E-1,5.989785E0,-6.224541E-2,-2.021129E-1,1.1427273E-1,-5.9454132E-2,-1.254239E-1,4.530562E-2,-1.5514806E-1,2.6117393E-3],"split_indices":[0,3,1,1,4,3,3,0,0,0,0,0,0,0,0],"split_type":[0,0,0,0,0,0,0,0,0,0,0,0,0,0,0],"sum_hessian":[9E2,8.5E1,8.15E2,6.6E1,1.9E1,7.04E2,1.11E2,1.4E1,5.2E1,5E0,1.4E1,5.4E1,6.5E2,6.9E1,4.2E1],"tree_param":{"num_deleted":"0","num_feature":"5","num_nodes":"15","size_leaf_vector":"1"}},{"base_weights":[-5.334781E-4,-1.4848506E-1,1.1728303E0,-3.6855447E-1,6.828988E-1,-3.0901432E-1,1.4979174E0,3.451874E-2,-6.817004E-2,5.747385E-3,1.3381314E-1,-1.0436404E-1,4.5651324E-2,2.9036522E-1,1.1706139E-1],"categories":[],"categories_nodes":[],"categories_segments":[],"categories_sizes":[],"default_left":[0,0,0,0,0,0,0,0,0,0,0,0,0,0,0],"id":49,"left_children":[1,3,5,7,9,11,13,-1,-1,-1,-1,-1,-1,-1,-1],"loss_changes":[1.5658868E2,1.4680437E2,4.911743E1,1.4193771E2,6.8769295E1,1.116159E1,3.47894E1,0E0,0E0,0E0,0E0,0E0,0E0,0E0,0E0],"parents":[2147483647,0,0,1,1,2,2,3,3,4,4,5,5,6,6],"right_children":[2,4,6,8,10,12,14,-1,-1,-1,-1,-1,-1,-1,-1],"split_conditions":[8.808951E0,7.7092185E0,1.3637148E0,2.9321077E0,4.4203343E0,6.118529E0,1.120389E0,3.451874E-2,-6.817004E-2,5.747385E-3,1.3381314E-1,-1.0436404E-1,4.5651324E-2,2.9036522E-1,1.1706139E-1],"split_indices":[3,2,2,1,0,0,1,0,0,0,0,0,0,0,0],"split_type":[0,0,0,0,0,0,0,0,0,0,0,0,0,0,0],"sum_hessian":[9E2,8E2,1E2,6.33E2,1.67E2,1.8E1,8.2E1,1.93E2,4.4E2,8.6E1,8.1E1,9E0,9E0,1.4E1,6.8E1],"tree_param":{"num_deleted":"0","num_feature":"5","num_nodes":"15","size_leaf_vector":"1"}},{"base_weights":[2.4314131E-5,4.2910078E-1,-3.8398114E-1,-1.1633483E0,5.746227E-1,-6.868789E-1,3.4054103E-1,-3.354085E-1,-7.846911E-2,4.4322733E-2,2.480522E-1,-8.826884E-3,-1.1633742E-1,-7.5786747E-4,1.4800715E-1],"categories":[],"categories_nodes":[],"categories_segments":[],"categories_sizes":[],"default_left":[0,0,0,0,0,0,0,0,0,0,0,0,0,0,0],"id":50,"left_children":[1,3,5,7,9,11,13,-1,-1,-1,-1,-1,-1,-1,-1],"loss_changes":[1.4862048E2,9.938812E1,1.0469503E2,2.7231457E1,9.681726E1,9.573622E1,5.594493E1,0E0,0E0,0E0,0E0,0E0,0E0,0E0,0E0],"parents":[2147483647,0,0,1,1,2,2,3,3,4,4,5,5,6,6],"right_children":[2,4,6,8,10,12,14,-1,-1,-1,-1,-1,-1,-1,-1],"split_conditions":[4.739212E0,5.773216E-1,7.147533E0,1.5987977E0,9.37388E0,4.415305E0,7.4747095E0,-3.354085E-1,-7.846911E-2,4.4322733E-2,2.480522E-1,-8.826884E-3,-1.1633742E-1,-7.5786747E-4,1.4800715E-1],"split_indices":[4,3,3,0,0,1,2,0,0,0,0,0,0,0,0],"split_type":[0,0,0,0,0,0,0,0,0,0,0,0,0,0,0],"sum_hessian":[9E2,4.25E2,4.75E2,3.5E1,3.9E2,3.35E2,1.4E2,4E0,3.1E1,3.66E2,2.4E1,1.49E2,1.86E2,1.08E2,3.2E1],"tree_param":{"num_deleted":"0","num_feature":"5","num_nodes":"15","size_leaf_vector":"1"}},{"base_weights":[-8.8452565E-5,-1.7092886E0,9.386768E-2,-1.1252136E0,-2.67382E0,2.4938425E-1,-8.7956536E-1,-1.4108914E-1,5.5808956E-3,2.6819468E-2,-2.874458E-1,-3.2781154E-2,5.3339716E-2,-1.3931303E-1,-1.5490638E-3],"categories":[],"categories_nodes":[],"categories_segments":[],"categories_sizes":[],"default_left":[0,0,0,0,0,0,0,0,0,0,0,0,0,0,0],"id":51,"left_children":[1,3,5,7,9,11,13,-1,-1,-1,-1,-1,-1,-1,-1],"loss_changes":[1.448519E2,2.3469238E1,1.296535E2,1.0537888E1,1.0805679E1,1.2115596E2,5.234192E1,0E0,0E0,0E0,0E0,0E0,0E0,0E0,0E0],"parents":[2147483647,0,0,1,1,2,2,3,3,4,4,5,5,6,6],"right_children":[2,4,6,8,10,12,14,-1,-1,-1,-1,-1,-1,-1,-1],"split_conditions":[5.463442E-1,6.451728E0,8.779743E0,8.329297E0,1.2436839E0,3.3089802E0,5.989785E0,-1.4108914E-1,5.5808956E-3,2.6819468E-2,-2.874458E-1,-3.2781154E-2,5.3339716E-2,-1.3931303E-1,-1.5490638E-3],"split_indices":[0,4,1,2,1,2,3,0,0,0,0,0,0,0,0],"split_type":[0,0,0,0,0,0,0,0,0,0,0,0,0,0,0],"sum_hessian":[9E2,4.6E1,8.54E2,3E1,1.6E1,7.37E2,1.17E2,2.4E1,6E0,1E0,1.5E1,2.43E2,4.94E2,7.3E1,4.4E1],"tree_param":{"num_deleted":"0","num_feature":"5","num_nodes":"15","size_leaf_vector":"1"}},{"base_weights":[-6.528383E-4,-1.1383701E-1,1.2846942E0,1.4232893E-1,-6.7814946E-1,1.7308213E0,3.0173397E-1,-7.9003595E-2,3.347961E-2,-9.6431896E-2,1.2382918E-2,2.4555658E-1,7.7327065E-2,1.8840091E-1,-1.0892153E-2],"categories":[],"categories_nodes":[],"categories_segments":[],"categories_sizes":[],"default_left":[0,0,0,0,0,0,0,0,0,0,0,0,0,0,0],"id":52,"left_children":[1,3,5,7,9,11,13,-1,-1,-1,-1,-1,-1,-1,-1],"loss_changes":[1.3122458E2,1.1993479E2,3.149009E1,1.0273021E2,5.956038E1,3.2800156E1,1.579969E1,0E0,0E0,0E0,0E0,0E0,0E0,0E0,0E0],"parents":[2147483647,0,0,1,1,2,2,3,3,4,4,5,5,6,6],"right_children":[2,4,6,8,10,12,14,-1,-1,-1,-1,-1,-1,-1,-1],"split_conditions":[9.303985E0,6.8253245E0,7.26671E0,1.4259415E0,7.3024917E0,5.313546E0,5.182354E-1,-7.9003595E-2,3.347961E-2,-9.6431896E-2,1.2382918E-2,2.4555658E-1,7.7327065E-2,1.8840091E-1,-1.0892153E-2],"split_indices":[0,4,4,3,3,1,1,0,0,0,0,0,0,0,0],"split_type":[0,0,0,0,0,0,0,0,0,0,0,0,0,0,0],"sum_hessian":[9E2,8.28E2,7.2E1,5.7E2,2.58E2,4.9E1,2.3E1,9.7E1,4.73E2,1.9E2,6.8E1,2.7E1,2.2E1,4E0,1.9E1],"tree_param":{"num_deleted":"0","num_feature":"5","num_nodes":"15","size_leaf_vector":"1"}},{"base_weights":[-1.7578303E-4,-5.347213E-1,2.5183702E-1,-2.3211713E0,-3.8607723E-1,4.2116123E-1,-8.4977686E-1,-1.4846815E-1,-3.5994434E-1,-2.3493906E-2,-1.7837887E-1,-9.631625E-2,5.5105396E-2,-6.2172037E-2,-2.630488E-1],"categories":[],"categories_nodes":[],"categories_segments":[],"categories_sizes":[],"default_left":[0,0,0,0,0,0,0,0,0,0,0,0,0,0,0],"id":53,"left_children":[1,3,5,7,9,11,13,-1,-1,-1,-1,-1,-1,-1,-1],"loss_changes":[1.2151045E2,7.5846436E1,1.14700745E2,1.8179726E1,5.6195255E1,9.619153E1,3.1664986E1,0E0,0E0,0E0,0E0,0E0,0E0,0E0,0E0],"parents":[2147483647,0,0,1,1,2,2,3,3,4,4,5,5,6,6],"right_children":[2,4,6,8,10,12,14,-1,-1,-1,-1,-1,-1,-1,-1],"split_conditions":[3.077709E0,8.603216E-1,8.779743E0,5.4419866E0,8.956748E0,7.89394E-1,7.6944256E0,-1.4846815E-1,-3.5994434E-1,-2.3493906E-2,-1.7837887E-1,-9.631625E-2,5.5105396E-2,-6.2172037E-2,-2.630488E-1],"split_indices":[0,3,1,1,4,2,4,0,0,0,0,0,0,0,0],"split_type":[0,0,0,0,0,0,0,0,0,0,0,0,0,0,0],"sum_hessian":[9E2,2.88E2,6.12E2,2.1E1,2.67E2,5.31E2,8.1E1,1.4E1,7E0,2.42E2,2.5E1,4.5E1,4.86E2,7.3E1,8E0],"tree_param":{"num_deleted":"0","num_feature":"5","num_nodes":"15","size_leaf_vector":"1"}},{"base_weights":[-1.3534017E-3,-8.319548E-1,1.4484286E-1,-1.1579025E0,-2.3625265E-1,4.6461467E-2,1.5854833E0,-7.349038E-2,-2.738569E-1,-4.3669622E-2,5.891468E-2,-3.640529E-2,3.976066E-2,1.9641572E-1,2.5422588E-2],"categories":[],"categories_nodes":[],"categories_segments":[],"categories_sizes":[],"default_left":[0,0,0,0,0,0,0,0,0,0,0,0,0,0,0],"id":54,"left_children":[1,3,5,7,9,11,13,-1,-1,-1,-1,-1,-1,-1,-1],"loss_changes":[1.0952968E2,2.5939087E1,1.0863495E2,5.6157326E1,8.364132E0,1.037887E2,2.4202164E1,0E0,0E0,0E0,0E0,0E0,0E0,0E0,0E0],"parents":[2147483647,0,0,1,1,2,2,3,3,4,4,5,5,6,6],"right_children":[2,4,6,8,10,12,14,-1,-1,-1,-1,-1,-1,-1,-1],"split_conditions":[1.568127E0,6.511476E0,9.317404E0,5.201635E0,8.157454E0,4.4203343E0,7.6554675E0,-7.349038E-2,-2.738569E-1,-4.3669622E-2,5.891468E-2,-3.640529E-2,3.976066E-2,1.9641572E-1,2.5422588E-2],"split_indices":[2,0,3,0,3,0,1,0,0,0,0,0,0,0,0],"split_type":[0,0,0,0,0,0,0,0,0,0,0,0,0,0,0],"sum_hessian":[9E2,1.34E2,7.66E2,8.6E1,4.8E1,7.18E2,4.8E1,6.9E1,1.7E1,3.9E1,9E0,3.31E2,3.87E2,3.7E1,1.1E1],"tree_param":{"num_deleted":"0","num_feature":"5","num_nodes":"15","size_leaf_vector":"1"}},{"base_weights":[-1.3366274E-3,-1.448724E0,7.822892E-2,-1.6650876E0,2.550888E-2,-8.5568935E-2,8.1271785E-1,-7.813266E-2,-2.0475006E-1,4.2513352E-2,-6.490352E-2,1.15347974E-1,-1.8060252E-2,2.2869505E-2,1.4736108E-1],"categories":[],"categories_nodes":[],"categories_segments":[],"categories_sizes":[],"default_left":[0,0,0,0,0,0,0,0,0,0,0,0,0,0,0],"id":55,"left_children":[1,3,5,7,9,11,13,-1,-1,-1,-1,-1,-1,-1,-1],"loss_changes":[1.0387445E2,1.50340805E1,1.0293263E2,1.225666E1,2.1628773E0,8.2634186E1,5.987536E1,0E0,0E0,0E0,0E0,0E0,0E0,0E0,0E0],"parents":[2147483647,0,0,1,1,2,2,3,3,4,4,5,5,6,6],"right_children":[2,4,6,8,10,12,14,-1,-1,-1,-1,-1,-1,-1,-1],"split_conditions":[5.463442E-1,8.920465E0,7.905098E0,3.924451E0,2.997359E-1,6.1349624E-1,4.5980043E0,-7.813266E-2,-2.0475006E-1,4.2513352E-2,-6.490352E-2,1.15347974E-1,-1.8060252E-2,2.2869505E-2,1.4736108E-1],"split_indices":[0,3,2,1,0,1,3,0,0,0,0,0,0,0,0],"split_type":[0,0,0,0,0,0,0,0,0,0,0,0,0,0,0],"sum_hessian":[9E2,4.6E1,8.54E2,4E1,6E0,6.99E2,1.55E2,1.3E1,2.7E1,4E0,2E0,4.9E1,6.5E2,8.3E1,7.2E1],"tree_param":{"num_deleted":"0","num_feature":"5","num_nodes":"15","size_leaf_vector":"1"}},{"base_weights":[-1.2449683E-3,-1.4601502E0,7.357214E-2,7.6879174E-1,-1.7656246E0,4.3936265E-1,-2.498646E-1,1.2822942E-1,-8.993602E-2,-2.6264268E-1,-1.3336514E-1,2.6197566E-2,1.2942217E-1,1.1769097E-1,-3.495212E-2],"categories":[],"categories_nodes":[],"categories_segments":[],"categories_sizes":[],"default_left":[0,0,0,0,0,0,0,0,0,0,0,0,0,0,0],"id":56,"left_children":[1,3,5,7,9,11,13,-1,-1,-1,-1,-1,-1,-1,-1],"loss_changes":[9.845254E1,3.131633E1,1.01619835E2,6.292845E0,1.0999161E1,6.0772232E1,6.524884E1,0E0,0E0,0E0,0E0,0E0,0E0,0E0,0E0],"parents":[2147483647,0,0,1,1,2,2,3,3,4,4,5,5,6,6],"right_children":[2,4,6,8,10,12,14,-1,-1,-1,-1,-1,-1,-1,-1],"split_conditions":[4.522729E-1,1.1098946E0,4.739212E0,5.190323E0,4.4203343E0,7.905098E0,5.182354E-1,1.2822942E-1,-8.993602E-2,-2.6264268E-1,-1.3336514E-1,2.6197566E-2,1.2942217E-1,1.1769097E-1,-3.495212E-2],"split_indices":[3,4,4,0,0,2,1,0,0,0,0,0,0,0,0],"split_type":[0,0,0,0,0,0,0,0,0,0,0,0,0,0,0],"sum_hessian":[9E2,4.3E1,8.57E2,5E0,3.8E1,4.02E2,4.55E2,4E0,1E0,1.1E1,2.7E1,3.34E2,6.8E1,2.9E1,4.26E2],"tree_param":{"num_deleted":"0","num_feature":"5","num_nodes":"15","size_leaf_vector":"1"}},{"base_weights":[-1.2531776E-3,-9.5617644E-2,1.0703825E0,5.1572186E-1,-2.683835E-1,1.4657601E0,2.0207965E-1,-7.084022E-2,7.049506E-2,-7.518505E-2,-3.1034388E-3,2.091434E-1,6.403416E-2,-1.2989296E-1,5.6722797E-2],"categories":[],"categories_nodes":[],"categories_segments":[],"categories_sizes":[],"default_left":[0,0,0,0,0,0,0,0,0,0,0,0,0,0,0],"id":57,"left_children":[1,3,5,7,9,11,13,-1,-1,-1,-1,-1,-1,-1,-1],"loss_changes":[9.121537E1,8.769622E1,2.4765259E1,4.288942E1,7.422023E1,2.448291E1,1.3890974E1,0E0,0E0,0E0,0E0,0E0,0E0,0E0,0E0],"parents":[2147483647,0,0,1,1,2,2,3,3,4,4,5,5,6,6],"right_children":[2,4,6,8,10,12,14,-1,-1,-1,-1,-1,-1,-1,-1],"split_conditions":[9.303985E0,2.167398E0,7.26671E0,1.3882717E0,3.2433376E0,5.313546E0,7.6057563E0,-7.084022E-2,7.049506E-2,-7.518505E-2,-3.1034388E-3,2.091434E-1,6.403416E-2,-1.2989296E-1,5.6722797E-2],"split_indices":[0,4,4,0,3,1,4,0,0,0,0,0,0,0,0],"split_type":[0,0,0,0,0,0,0,0,0,0,0,0,0,0,0],"sum_hessian":[9E2,8.28E2,7.2E1,1.82E2,6.46E2,4.9E1,2.3E1,2.4E1,1.58E2,2.12E2,4.34E2,2.7E1,2.2E1,4E0,1.9E1],"tree_param":{"num_deleted":"0","num_feature":"5","num_nodes":"15","size_leaf_vector":"1"}},{"base_weights":[-9.930223E-4,1.6944827E-1,-5.661357E-1,2.8659686E-1,-9.2938185E-1,-1.9415627E0,-4.4205078E-1,-1.2154709E-2,5.2498776E-2,-1.20330155E-1,9.695786E-2,1.343114E-1,-2.2307995E-1,-1.0204649E-1,-1.4717504E-2],"categories":[],"categories_nodes":[],"categories_segments":[],"categories_sizes":[],"default_left":[0,0,0,0,0,0,0,0,0,0,0,0,0,0,0],"id":58,"left_children":[1,3,5,7,9,11,13,-1,-1,-1,-1,-1,-1,-1,-1],"loss_changes":[8.6883545E1,8.947376E1,3.4811714E1,6.106953E1,3.6017593E1,1.9147064E1,3.2767956E1,0E0,0E0,0E0,0E0,0E0,0E0,0E0,0E0],"parents":[2147483647,0,0,1,1,2,2,3,3,4,4,5,5,6,6],"right_children":[2,4,6,8,10,12,14,-1,-1,-1,-1,-1,-1,-1,-1],"split_conditions":[7.8961816E0,8.956748E0,6.6564727E-1,3.6981325E0,8.808951E0,7.664032E-2,3.8213947E0,-1.2154709E-2,5.2498776E-2,-1.20330155E-1,9.695786E-2,1.343114E-1,-2.2307995E-1,-1.0204649E-1,-1.4717504E-2],"split_indices":[1,4,0,2,3,0,3,0,0,0,0,0,0,0,0],"split_type":[0,0,0,0,0,0,0,0,0,0,0,0,0,0,0],"sum_hessian":[9E2,6.92E2,2.08E2,6.26E2,6.6E1,1.6E1,1.92E2,2.31E2,3.95E2,5.8E1,8E0,1E0,1.5E1,6.4E1,1.28E2],"tree_param":{"num_deleted":"0","num_feature":"5","num_nodes":"15","size_leaf_vector":"1"}},{"base_weights":[-1.1026928E-3,-9.9914275E-2,9.245587E-1,-2.878509E-1,4.1607663E-1,-4.2522654E-2,1.1430914E0,6.84587E-2,-4.328841E-2,9.944958E-2,1.6923686E-2,-6.2272903E-2,5.424084E-2,2.0414689E-1,7.7557914E-2],"categories":[],"categories_nodes":[],"categories_segments":[],"categories_sizes":[],"default_left":[0,0,0,0,0,0,0,0,0,0,0,0,0,0,0],"id":59,"left_children":[1,3,5,7,9,11,13,-1,-1,-1,-1,-1,-1,-1,-1],"loss_changes":[8.2503296E1,7.9153244E1,1.8435097E1,8.463574E1,3.0957043E1,6.1072454E0,2.1858376E1,0E0,0E0,0E0,0E0,0E0,0E0,0E0,0E0],"parents":[2147483647,0,0,1,1,2,2,3,3,4,4,5,5,6,6],"right_children":[2,4,6,8,10,12,14,-1,-1,-1,-1,-1,-1,-1,-1],"split_conditions":[8.980543E0,7.375823E0,1.3637148E0,1.1586906E0,3.4970324E0,6.118529E0,1.5253904E0,6.84587E-2,-4.328841E-2,9.944958E-2,1.6923686E-2,-6.2272903E-2,5.424084E-2,2.0414689E-1,7.7557914E-2],"split_indices":[3,0,2,4,4,0,1,0,0,0,0,0,0,0,0],"split_type":[0,0,0,0,0,0,0,0,0,0,0,0,0,0,0],"sum_hessian":[9E2,8.14E2,8.6E1,5.97E2,2.17E2,1.6E1,7E1,7.7E1,5.2E2,6.4E1,1.53E2,8E0,8E0,1.9E1,5.1E1],"tree_param":{"num_deleted":"0","num_feature":"5","num_nodes":"15","size_leaf_vector":"1"}},{"base_weights":[-5.3123257E-4,8.941435E-2,-9.2471546E-1,-1.9362237E-1,3.9887077E-1,-5.9095067E-1,-1.9651734E0,-3.3686545E-2,6.0148884E-2,-1.4284809E-1,4.751638E-2,-1.6274956E-1,-2.2551095E-2,-2.1178524E-1,-4.449336E-2],"categories":[],"categories_nodes":[],"categories_segments":[],"categories_sizes":[],"default_left":[0,0,0,0,0,0,0,0,0,0,0,0,0,0,0],"id":60,"left_children":[1,3,5,7,9,11,13,-1,-1,-1,-1,-1,-1,-1,-1],"loss_changes":[7.497948E1,7.207418E1,2.6620132E1,4.9177116E1,5.5468517E1,2.3118254E1,3.4677658E0,0E0,0E0,0E0,0E0,0E0,0E0,0E0,0E0],"parents":[2147483647,0,0,1,1,2,2,3,3,4,4,5,5,6,6],"right_children":[2,4,6,8,10,12,14,-1,-1,-1,-1,-1,-1,-1,-1],"split_conditions":[9.271107E0,5.2439027E0,6.851343E0,8.51425E0,3.9426813E-1,2.9938338E0,9.915328E0,-3.3686545E-2,6.0148884E-2,-1.4284809E-1,4.751638E-2,-1.6274956E-1,-2.2551095E-2,-2.1178524E-1,-4.449336E-2],"split_indices":[1,2,4,0,3,3,1,0,0,0,0,0,0,0,0],"split_type":[0,0,0,0,0,0,0,0,0,0,0,0,0,0,0],"sum_hessian":[9E2,8.21E2,7.9E1,4.29E2,3.92E2,6.1E1,1.8E1,3.64E2,6.5E1,1.5E1,3.77E2,1.5E1,4.6E1,1.6E1,2E0],"tree_param":{"num_deleted":"0","num_feature":"5","num_nodes":"15","size_leaf_vector":"1"}},{"base_weights":[-1.0446225E-3,-8.742231E-1,9.098282E-2,-1.7736111E0,-6.100673E-1,-3.732999E-2,7.161994E-1,-1.0376257E-1,-2.476081E-1,-1.7189355E-1,-4.335693E-2,-1.19367875E-2,1.0182047E-1,3.3817995E-2,1.5522851E-1],"categories":[],"categories_nodes":[],"categories_segments":[],"categories_sizes":[],"default_left":[0,0,0,0,0,0,0,0,0,0,0,0,0,0,0],"id":61,"left_children":[1,3,5,7,9,11,13,-1,-1,-1,-1,-1,-1,-1,-1],"loss_changes":[7.248064E1,1.934974E1,6.548894E1,7.2538986E0,1.2563206E1,5.8832157E1,4.340692E1,0E0,0E0,0E0,0E0,0E0,0E0,0E0,0E0],"parents":[2147483647,0,0,1,1,2,2,3,3,4,4,5,5,6,6],"right_children":[2,4,6,8,10,12,14,-1,-1,-1,-1,-1,-1,-1,-1],"split_conditions":[8.8600427E-1,2.8840544E0,8.056702E0,5.98563E0,1.3637148E0,9.317404E0,6.1958795E0,-1.0376257E-1,-2.476081E-1,-1.7189355E-1,-4.335693E-2,-1.19367875E-2,1.0182047E-1,3.3817995E-2,1.5522851E-1],"split_indices":[0,3,2,1,2,3,3,0,0,0,0,0,0,0,0],"split_type":[0,0,0,0,0,0,0,0,0,0,0,0,0,0,0],"sum_hessian":[9E2,8.5E1,8.15E2,1.8E1,6.7E1,6.77E2,1.38E2,1E1,8E0,8E0,5.9E1,6.29E2,4.8E1,9.6E1,4.2E1],"tree_param":{"num_deleted":"0","num_feature":"5","num_nodes":"15","size_leaf_vector":"1"}},{"base_weights":[-1.2596472E-3,1.8173437E-1,-3.933853E-1,-5.3535855E-1,3.2535785E-1,-6.107503E-1,2.5218812E-1,-3.5875842E-3,-1.0439316E-1,5.2197855E-2,-2.5197882E-2,-5.0328564E-2,-1.8327925E-1,6.959926E-2,-2.7735217E-2],"categories":[],"categories_nodes":[],"categories_segments":[],"categories_sizes":[],"default_left":[0,0,0,0,0,0,0,0,0,0,0,0,0,0,0],"id":62,"left_children":[1,3,5,7,9,11,13,-1,-1,-1,-1,-1,-1,-1,-1],"loss_changes":[6.4724236E1,6.3513874E1,4.042731E1,2.6126965E1,5.836542E1,2.7312752E1,1.734894E1,0E0,0E0,0E0,0E0,0E0,0E0,0E0,0E0],"parents":[2147483647,0,0,1,1,2,2,3,3,4,4,5,5,6,6],"right_children":[2,4,6,8,10,12,14,-1,-1,-1,-1,-1,-1,-1,-1],"split_conditions":[6.8253245E0,1.4259415E0,7.925951E0,3.4080355E0,7.8961816E0,9.137884E0,4.3201895E0,-3.5875842E-3,-1.0439316E-1,5.2197855E-2,-2.5197882E-2,-5.0328564E-2,-1.8327925E-1,6.959926E-2,-2.7735217E-2],"split_indices":[4,3,0,4,1,1,1,0,0,0,0,0,0,0,0],"split_type":[0,0,0,0,0,0,0,0,0,0,0,0,0,0,0],"sum_hessian":[9E2,6.14E2,2.86E2,1.02E2,5.12E2,2.14E2,7.2E1,5.2E1,5E1,3.82E2,1.3E2,1.98E2,1.6E1,3.9E1,3.3E1],"tree_param":{"num_deleted":"0","num_feature":"5","num_nodes":"15","size_leaf_vector":"1"}},{"base_weights":[-1.4362782E-3,-8.845045E-1,7.516896E-2,-1.1896783E0,2.5795895E-1,4.616884E-1,-1.0693607E-1,-7.844945E-2,-1.6426094E-1,-2.025248E-2,1.059186E-1,-6.496203E-2,5.6954738E-2,-5.632747E-2,9.421791E-3],"categories":[],"categories_nodes":[],"categories_segments":[],"categories_sizes":[],"default_left":[0,0,0,0,0,0,0,0,0,0,0,0,0,0,0],"id":63,"left_children":[1,3,5,7,9,11,13,-1,-1,-1,-1,-1,-1,-1,-1],"loss_changes":[6.1017017E1,2.540968E1,5.847069E1,9.172043E0,6.1177435E0,3.225397E1,5.1916862E1,0E0,0E0,0E0,0E0,0E0,0E0,0E0,0E0],"parents":[2147483647,0,0,1,1,2,2,3,3,4,4,5,5,6,6],"right_children":[2,4,6,8,10,12,14,-1,-1,-1,-1,-1,-1,-1,-1],"split_conditions":[7.6979464E-1,7.2500606E0,2.9321077E0,5.1938586E0,4.530401E-1,7.686207E-1,3.175868E0,-7.844945E-2,-1.6426094E-1,-2.025248E-2,1.059186E-1,-6.496203E-2,5.6954738E-2,-5.632747E-2,9.421791E-3],"split_indices":[2,0,1,1,2,3,3,0,0,0,0,0,0,0,0],"split_type":[0,0,0,0,0,0,0,0,0,0,0,0,0,0,0],"sum_hessian":[9E2,7.1E1,8.29E2,5.6E1,1.5E1,2.65E2,5.64E2,3.1E1,2.5E1,1E1,5E0,2.3E1,2.42E2,1.72E2,3.92E2],"tree_param":{"num_deleted":"0","num_feature":"5","num_nodes":"15","size_leaf_vector":"1"}},{"base_weights":[-1.5279436E-3,-1.0903494E0,5.8327187E-2,-1.2866733E0,-1.1846256E-1,-6.0774706E-2,5.923849E-1,-2.0338057E-1,-9.205212E-2,1.6251482E-2,-7.3458895E-2,4.517185E-3,-6.969058E-2,9.988054E-2,6.5466124E-3],"categories":[],"categories_nodes":[],"categories_segments":[],"categories_sizes":[],"default_left":[0,0,0,0,0,0,0,0,0,0,0,0,0,0,0],"id":64,"left_children":[1,3,5,7,9,11,13,-1,-1,-1,-1,-1,-1,-1,-1],"loss_changes":[5.878316E1,8.815392E0,5.442022E1,8.7968445E0,1.6774398E0,4.7208607E1,3.3342106E1,0E0,0E0,0E0,0E0,0E0,0E0,0E0,0E0],"parents":[2147483647,0,0,1,1,2,2,3,3,4,4,5,5,6,6],"right_children":[2,4,6,8,10,12,14,-1,-1,-1,-1,-1,-1,-1,-1],"split_conditions":[5.463442E-1,8.727303E0,7.905098E0,2.965599E0,6.642194E0,8.742226E0,6.314588E0,-2.0338057E-1,-9.205212E-2,1.6251482E-2,-7.3458895E-2,4.517185E-3,-6.969058E-2,9.988054E-2,6.5466124E-3],"split_indices":[0,3,2,2,1,1,4,0,0,0,0,0,0,0,0],"split_type":[0,0,0,0,0,0,0,0,0,0,0,0,0,0,0],"sum_hessian":[9E2,4.6E1,8.54E2,3.8E1,8E0,6.99E2,1.55E2,1.1E1,2.7E1,6E0,2E0,6E2,9.9E1,8.7E1,6.8E1],"tree_param":{"num_deleted":"0","num_feature":"5","num_nodes":"15","size_leaf_vector":"1"}},{"base_weights":[-1.7204225E-3,-8.125612E-2,7.433751E-1,-4.464501E-3,-9.6724457E-1,-1.2830302E-1,8.061497E-1,-1.5726848E-2,4.2604648E-2,-1.2967686E-1,-1.6097713E-2,-3.2956966E-3,1.0012028E-1],"categories":[],"categories_nodes":[],"categories_segments":[],"categories_sizes":[],"default_left":[0,0,0,0,0,0,0,0,0,0,0,0,0],"id":65,"left_children":[1,3,5,7,9,-1,11,-1,-1,-1,-1,-1,-1],"loss_changes":[5.345519E1,5.544542E1,1.2101307E1,4.9470623E1,1.7060741E1,0E0,1.3944977E1,0E0,0E0,0E0,0E0,0E0,0E0],"parents":[2147483647,0,0,1,1,2,2,3,3,4,4,6,6],"right_children":[2,4,6,8,10,-1,12,-1,-1,-1,-1,-1,-1],"split_conditions":[8.980543E0,9.000231E0,4.010919E-1,7.4197774E0,6.6519723E0,-1.2830302E-1,1.3637148E0,-1.5726848E-2,4.2604648E-2,-1.2967686E-1,-1.6097713E-2,-3.2956966E-3,1.0012028E-1],"split_indices":[3,4,4,0,2,0,2,0,0,0,0,0,0],"split_type":[0,0,0,0,0,0,0,0,0,0,0,0,0],"sum_hessian":[9E2,8.14E2,8.6E1,7.5E2,6.4E1,2E0,8.4E1,5.54E2,1.96E2,4.5E1,1.9E1,1.6E1,6.8E1],"tree_param":{"num_deleted":"0","num_feature":"5","num_nodes":"13","size_leaf_vector":"1"}},{"base_weights":[-1.7155347E-3,-1.0725919E0,5.3203203E-2,6.673598E-1,-1.3127744E0,-4.5838308E-1,1.6665165E-1,1.1445987E-1,-8.594175E-2,-2.6237625E-1,-1.08798265E-1,-2.2696832E-2,-9.590854E-2,4.923861E-3,7.199063E-2],"categories":[],"categories_nodes":[],"categories_segments":[],"categories_sizes":[],"default_left":[0,0,0,0,0,0,0,0,0,0,0,0,0,0,0],"id":66,"left_children":[1,3,5,7,9,11,13,-1,-1,-1,-1,-1,-1,-1,-1],"loss_changes":[5.3045937E1,1.9263954E1,4.9873566E1,5.3555145E0,8.638672E0,1.7858025E1,4.5630947E1,0E0,0E0,0E0,0E0,0E0,0E0,0E0,0E0],"parents":[2147483647,0,0,1,1,2,2,3,3,4,4,5,5,6,6],"right_children":[2,4,6,8,10,12,14,-1,-1,-1,-1,-1,-1,-1,-1],"split_conditions":[4.522729E-1,1.1098946E0,1.6352388E0,5.190323E0,2.2774973E0,6.649849E0,8.056702E0,1.1445987E-1,-8.594175E-2,-2.6237625E-1,-1.08798265E-1,-2.2696832E-2,-9.590854E-2,4.923861E-3,7.199063E-2],"split_indices":[3,4,0,0,0,4,2,0,0,0,0,0,0,0,0],"split_type":[0,0,0,0,0,0,0,0,0,0,0,0,0,0,0],"sum_hessian":[9E2,4.3E1,8.57E2,5E0,3.8E1,1.55E2,7.02E2,4E0,1E0,4E0,3.4E1,1.07E2,4.8E1,5.8E2,1.22E2],"tree_param":{"num_deleted":"0","num_feature":"5","num_nodes":"15","size_leaf_vector":"1"}},{"base_weights":[-1.9710124E-3,8.4653705E-1,-6.351325E-2,1.575999E-1,1.4659615E0,1.6986433E-1,-2.8591388E-1,-3.0233083E-2,1.1076944E-1,1.4290169E-2,1.7657867E-1,1.4171578E-3,8.343709E-2,-1.2401777E-1,-1.6867671E-2],"categories":[],"categories_nodes":[],"categories_segments":[],"categories_sizes":[],"default_left":[0,0,0,0,0,0,0,0,0,0,0,0,0,0,0],"id":67,"left_children":[1,3,5,7,9,11,13,-1,-1,-1,-1,-1,-1,-1,-1],"loss_changes":[4.710316E1,2.5800377E1,4.369926E1,1.3444221E1,1.2441643E1,4.2509766E1,4.8009018E1,0E0,0E0,0E0,0E0,0E0,0E0,0E0,0E0],"parents":[2147483647,0,0,1,1,2,2,3,3,4,4,5,5,6,6],"right_children":[2,4,6,8,10,12,14,-1,-1,-1,-1,-1,-1,-1,-1],"split_conditions":[6.1349624E-1,5.606783E0,4.928196E0,4.157896E-1,1.5987977E0,7.7671056E0,1.2429723E0,-3.0233083E-2,1.1076944E-1,1.4290169E-2,1.7657867E-1,1.4171578E-3,8.343709E-2,-1.2401777E-1,-1.6867671E-2],"split_indices":[1,2,4,1,0,2,3,0,0,0,0,0,0,0,0],"split_type":[0,0,0,0,0,0,0,0,0,0,0,0,0,0,0],"sum_hessian":[9E2,6E1,8.4E2,2.9E1,3.1E1,4.1E2,4.3E2,2E1,9E0,6E0,2.5E1,3.33E2,7.7E1,4.6E1,3.84E2],"tree_param":{"num_deleted":"0","num_feature":"5","num_nodes":"15","size_leaf_vector":"1"}},{"base_weights":[-1.5344815E-3,-6.6742405E-2,7.389984E-1,6.280283E-1,-1.4592196E-1,1.0742459E0,9.774526E-3,-2.6049687E-2,9.61844E-2,-2.2111624E-2,5.4930653E-2,1.586965E-1,4.0335994E-2,-1.282975E-1,3.3247318E-2],"categories":[],"categories_nodes":[],"categories_segments":[],"categories_sizes":[],"default_left":[0,0,0,0,0,0,0,0,0,0,0,0,0,0,0],"id":68,"left_children":[1,3,5,7,9,11,13,-1,-1,-1,-1,-1,-1,-1,-1],"loss_changes":[4.355736E1,4.5696285E1,1.7835846E1,2.5461864E1,3.9067986E1,1.6558681E1,1.0438601E1,0E0,0E0,0E0,0E0,0E0,0E0,0E0,0E0],"parents":[2147483647,0,0,1,1,2,2,3,3,4,4,5,5,6,6],"right_children":[2,4,6,8,10,12,14,-1,-1,-1,-1,-1,-1,-1,-1],"split_conditions":[9.303985E0,9.839565E-1,7.26671E0,2.9335341E0,8.980543E0,5.313546E0,7.6057563E0,-2.6049687E-2,9.61844E-2,-2.2111624E-2,5.4930653E-2,1.586965E-1,4.0335994E-2,-1.282975E-1,3.3247318E-2],"split_indices":[0,4,4,0,3,1,4,0,0,0,0,0,0,0,0],"split_type":[0,0,0,0,0,0,0,0,0,0,0,0,0,0,0],"sum_hessian":[9E2,8.28E2,7.2E1,8.4E1,7.44E2,4.9E1,2.3E1,2.3E1,6.1E1,6.72E2,7.2E1,2.7E1,2.2E1,4E0,1.9E1],"tree_param":{"num_deleted":"0","num_feature":"5","num_nodes":"15","size_leaf_vector":"1"}},{"base_weights":[-1.1514148E-3,6.69909E-2,-7.012993E-1,-2.609265E-1,2.1916074E-1,-4.9006447E-1,-1.7522738E0,1.06972195E-1,-3.4641206E-2,-9.771954E-2,2.6971081E-2,-1.4149167E-1,-1.7828465E-2,-2.1463521E-1,-6.924782E-2],"categories":[],"categories_nodes":[],"categories_segments":[],"categories_sizes":[],"default_left":[0,0,0,0,0,0,0,0,0,0,0,0,0,0,0],"id":69,"left_children":[1,3,5,7,9,11,13,-1,-1,-1,-1,-1,-1,-1,-1],"loss_changes":[4.3033413E1,4.1074272E1,1.6901463E1,3.0059635E1,3.4251E1,1.9355556E1,3.9430504E0,0E0,0E0,0E0,0E0,0E0,0E0,0E0,0E0],"parents":[2147483647,0,0,1,1,2,2,3,3,4,4,5,5,6,6],"right_children":[2,4,6,8,10,12,14,-1,-1,-1,-1,-1,-1,-1,-1],"split_conditions":[9.271107E0,3.077709E0,7.6944256E0,3.6549667E-1,3.252618E-1,2.9938338E0,9.260595E0,1.06972195E-1,-3.4641206E-2,-9.771954E-2,2.6971081E-2,-1.4149167E-1,-1.7828465E-2,-2.1463521E-1,-6.924782E-2],"split_indices":[1,0,4,1,2,3,4,0,0,0,0,0,0,0,0],"split_type":[0,0,0,0,0,0,0,0,0,0,0,0,0,0,0],"sum_hessian":[9E2,8.21E2,7.9E1,2.6E2,5.61E2,6.7E1,1.2E1,1.5E1,2.45E2,2.2E1,5.39E2,1.6E1,5.1E1,8E0,4E0],"tree_param":{"num_deleted":"0","num_feature":"5","num_nodes":"15","size_leaf_vector":"1"}},{"base_weights":[-1.5263408E-3,-9.1899157E-1,4.5524936E-2,5.382535E-1,-1.1196193E0,9.786452E-2,-8.022401E-1,9.973972E-2,-8.787327E-2,-2.3231356E-1,-9.1569915E-2,1.9026434E-2,-4.5026314E-2,-2.1050563E-1,-6.1070364E-2],"categories":[],"categories_nodes":[],"categories_segments":[],"categories_sizes":[],"default_left":[0,0,0,0,0,0,0,0,0,0,0,0,0,0,0],"id":70,"left_children":[1,3,5,7,9,11,13,-1,-1,-1,-1,-1,-1,-1,-1],"loss_changes":[3.8936123E1,1.3466637E1,3.8149403E1,4.780048E0,7.4441338E0,4.1059006E1,1.1191273E1,0E0,0E0,0E0,0E0,0E0,0E0,0E0,0E0],"parents":[2147483647,0,0,1,1,2,2,3,3,4,4,5,5,6,6],"right_children":[2,4,6,8,10,12,14,-1,-1,-1,-1,-1,-1,-1,-1],"split_conditions":[4.522729E-1,1.1098946E0,9.44732E0,5.190323E0,2.2774973E0,8.779743E0,1.3745554E-1,9.973972E-2,-8.787327E-2,-2.3231356E-1,-9.1569915E-2,1.9026434E-2,-4.5026314E-2,-2.1050563E-1,-6.1070364E-2],"split_indices":[3,4,4,0,0,1,2,0,0,0,0,0,0,0,0],"split_type":[0,0,0,0,0,0,0,0,0,0,0,0,0,0,0],"sum_hessian":[9E2,4.3E1,8.57E2,5E0,3.8E1,8.08E2,4.9E1,4E0,1E0,4E0,3.4E1,6.92E2,1.16E2,5E0,4.4E1],"tree_param":{"num_deleted":"0","num_feature":"5","num_nodes":"15","size_leaf_vector":"1"}},{"base_weights":[-2.0503523E-3,-8.6778075E-1,4.5541905E-2,-1.0239216E-1,-1.0988053E0,-4.3187818E-1,1.2942134E-1,-8.408189E-2,7.76171E-2,-8.461722E-2,-1.8772498E-1,-3.788842E-2,-2.5136662E-1,3.417922E-2,-9.965449E-3],"categories":[],"categories_nodes":[],"categories_segments":[],"categories_sizes":[],"default_left":[0,0,0,0,0,0,0,0,0,0,0,0,0,0,0],"id":71,"left_children":[1,3,5,7,9,11,13,-1,-1,-1,-1,-1,-1,-1,-1],"loss_changes":[3.7162582E1,8.198196E0,3.4294987E1,8.437674E0,5.4913177E0,1.3168858E1,3.545056E1,0E0,0E0,0E0,0E0,0E0,0E0,0E0,0E0],"parents":[2147483647,0,0,1,1,2,2,3,3,4,4,5,5,6,6],"right_children":[2,4,6,8,10,12,14,-1,-1,-1,-1,-1,-1,-1,-1],"split_conditions":[5.463442E-1,2.7364042E0,1.568127E0,3.931039E0,8.419335E0,9.7727995E0,5.156794E0,-8.408189E-2,7.76171E-2,-8.461722E-2,-1.8772498E-1,-3.788842E-2,-2.5136662E-1,3.417922E-2,-9.965449E-3],"split_indices":[0,1,2,3,4,1,1,0,0,0,0,0,0,0,0],"split_type":[0,0,0,0,0,0,0,0,0,0,0,0,0,0,0],"sum_hessian":[9E2,4.6E1,8.54E2,1.1E1,3.5E1,1.27E2,7.27E2,6E0,5E0,2.8E1,7E0,1.25E2,2E0,3.77E2,3.5E2],"tree_param":{"num_deleted":"0","num_feature":"5","num_nodes":"15","size_leaf_vector":"1"}},{"base_weights":[-2.4491276E-3,-7.6639734E-2,5.0529397E-1,4.9427852E-1,-1.5199582E-1,1.0154288E0,2.8761253E-1,-1.0231232E-2,8.457682E-2,-2.6285142E-2,3.467419E-2,-8.490028E-2,1.2232449E-1,6.0155302E-2,-5.706382E-3],"categories":[],"categories_nodes":[],"categories_segments":[],"categories_sizes":[],"default_left":[0,0,0,0,0,0,0,0,0,0,0,0,0,0,0],"id":72,"left_children":[1,3,5,7,9,11,13,-1,-1,-1,-1,-1,-1,-1,-1],"loss_changes":[3.3979183E1,3.3933575E1,1.2478346E1,1.937852E1,3.85715E1,1.4212135E1,8.907371E0,0E0,0E0,0E0,0E0,0E0,0E0,0E0,0E0],"parents":[2147483647,0,0,1,1,2,2,3,3,4,4,5,5,6,6],"right_children":[2,4,6,8,10,12,14,-1,-1,-1,-1,-1,-1,-1,-1],"split_conditions":[8.660639E0,1.1586906E0,2.3951018E0,3.8816571E0,8.288834E0,4.010919E-1,5.0035944E0,-1.0231232E-2,8.457682E-2,-2.6285142E-2,3.467419E-2,-8.490028E-2,1.2232449E-1,6.0155302E-2,-5.706382E-3],"split_indices":[3,4,4,0,0,4,1,0,0,0,0,0,0,0,0],"split_type":[0,0,0,0,0,0,0,0,0,0,0,0,0,0,0],"sum_hessian":[9E2,7.86E2,1.14E2,9.1E1,6.95E2,3.3E1,8.1E1,3.4E1,5.7E1,5.69E2,1.26E2,3E0,3E1,4.2E1,3.9E1],"tree_param":{"num_deleted":"0","num_feature":"5","num_nodes":"15","size_leaf_vector":"1"}},{"base_weights":[-2.0106127E-3,-2.8012174E-1,1.2711567E-1,1.3376571E-1,-5.512376E-1,-5.299987E-1,2.0827535E-1,-4.594157E-2,5.2728135E-2,-1.7498467E-2,-9.8644435E-2,-9.579576E-3,-9.876141E-2,1.5619605E-2,1.171744E-1],"categories":[],"categories_nodes":[],"categories_segments":[],"categories_sizes":[],"default_left":[0,0,0,0,0,0,0,0,0,0,0,0,0,0,0],"id":73,"left_children":[1,3,5,7,9,11,13,-1,-1,-1,-1,-1,-1,-1,-1],"loss_changes":[3.239183E1,3.216621E1,3.29624E1,2.6852821E1,2.8155758E1,1.3416849E1,2.7364029E1,0E0,0E0,0E0,0E0,0E0,0E0,0E0,0E0],"parents":[2147483647,0,0,1,1,2,2,3,3,4,4,5,5,6,6],"right_children":[2,4,6,8,10,12,14,-1,-1,-1,-1,-1,-1,-1,-1],"split_conditions":[3.175868E0,3.9174244E0,1.1047411E0,4.073655E0,5.156794E0,5.855637E0,9.551152E0,-4.594157E-2,5.2728135E-2,-1.7498467E-2,-9.8644435E-2,-9.579576E-3,-9.876141E-2,1.5619605E-2,1.171744E-1],"split_indices":[3,4,2,0,1,1,0,0,0,0,0,0,0,0,0],"split_type":[0,0,0,0,0,0,0,0,0,0,0,0,0,0,0],"sum_hessian":[9E2,2.85E2,6.15E2,1.13E2,1.72E2,6.7E1,5.48E2,4.5E1,6.8E1,9.3E1,7.9E1,3.5E1,3.2E1,5.21E2,2.7E1],"tree_param":{"num_deleted":"0","num_feature":"5","num_nodes":"15","size_leaf_vector":"1"}},{"base_weights":[-1.9040882E-3,1.23397954E-1,-2.7040184E-1,-6.2182826E-1,1.9188797E-1,-2.0040047E-1,-1.1948999E0,-1.4917617E-1,-2.2883467E-2,7.327319E-2,9.967039E-3,-3.0970583E-2,3.3384938E-2,-3.220168E-2,-1.4643933E-1],"categories":[],"categories_nodes":[],"categories_segments":[],"categories_sizes":[],"default_left":[0,0,0,0,0,0,0,0,0,0,0,0,0,0,0],"id":74,"left_children":[1,3,5,7,9,11,13,-1,-1,-1,-1,-1,-1,-1,-1],"loss_changes":[3.0345995E1,3.1509262E1,1.8334072E1,1.7436302E1,2.8056644E1,1.575362E1,4.233164E0,0E0,0E0,0E0,0E0,0E0,0E0,0E0,0E0],"parents":[2147483647,0,0,1,1,2,2,3,3,4,4,5,5,6,6],"right_children":[2,4,6,8,10,12,14,-1,-1,-1,-1,-1,-1,-1,-1],"split_conditions":[6.8253245E0,6.535634E-1,9.271107E0,4.4203343E0,1.1409578E0,8.141257E0,1.2554979E0,-1.4917617E-1,-2.2883467E-2,7.327319E-2,9.967039E-3,-3.0970583E-2,3.3384938E-2,-3.220168E-2,-1.4643933E-1],"split_indices":[4,3,1,0,1,3,2,0,0,0,0,0,0,0,0],"split_type":[0,0,0,0,0,0,0,0,0,0,0,0,0,0,0],"sum_hessian":[9E2,6.14E2,2.86E2,5.1E1,5.63E2,2.67E2,1.9E1,1.5E1,3.6E1,8.1E1,4.82E2,2.22E2,4.5E1,5E0,1.4E1],"tree_param":{"num_deleted":"0","num_feature":"5","num_nodes":"15","size_leaf_vector":"1"}},{"base_weights":[-2.0079548E-3,-2.3826258E-1,1.3494876E-1,-7.44546E-1,-1.3467513E-1,2.2143354E-1,-3.6909306E-1,-8.4678784E-2,7.962944E-2,9.594505E-3,-4.223242E-2,-5.8211733E-2,2.8289353E-2,-1.4092766E-1,-1.4092386E-2],"categories":[],"categories_nodes":[],"categories_segments":[],"categories_sizes":[],"default_left":[0,0,0,0,0,0,0,0,0,0,0,0,0,0,0],"id":75,"left_children":[1,3,5,7,9,11,13,-1,-1,-1,-1,-1,-1,-1,-1],"loss_changes":[2.91855E1,1.7258894E1,2.4972725E1,9.496433E0,1.8349716E1,2.4265162E1,1.9737778E1,0E0,0E0,0E0,0E0,0E0,0E0,0E0,0E0],"parents":[2147483647,0,0,1,1,2,2,3,3,4,4,5,5,6,6],"right_children":[2,4,6,8,10,12,14,-1,-1,-1,-1,-1,-1,-1,-1],"split_conditions":[3.6981325E0,1.7483863E0,8.779743E0,9.545659E0,5.6340837E0,6.535634E-1,2.799339E0,-8.4678784E-2,7.962944E-2,9.594505E-3,-4.223242E-2,-5.8211733E-2,2.8289353E-2,-1.4092766E-1,-1.4092386E-2],"split_indices":[2,0,1,1,4,3,3,0,0,0,0,0,0,0,0],"split_type":[0,0,0,0,0,0,0,0,0,0,0,0,0,0,0],"sum_hessian":[9E2,3.3E2,5.7E2,5.5E1,2.75E2,4.87E2,8.3E1,5.2E1,3E0,1.53E2,1.22E2,3.4E1,4.53E2,1.4E1,6.9E1],"tree_param":{"num_deleted":"0","num_feature":"5","num_nodes":"15","size_leaf_vector":"1"}},{"base_weights":[-2.0544513E-3,-7.403984E-1,3.8535282E-2,-1.973505E-1,-6.114706E-1,-9.769649E-2,2.8079656E-1,1.7021557E-2,-8.463846E-2,-5.4188993E-2,-1.6114295E-3,1.4371423E-1,1.9117843E-2],"categories":[],"categories_nodes":[],"categories_segments":[],"categories_sizes":[],"default_left":[0,0,0,0,0,0,0,0,0,0,0,0,0],"id":76,"left_children":[1,3,5,-1,7,9,11,-1,-1,-1,-1,-1,-1],"loss_changes":[2.7030766E1,6.265402E0,2.824558E1,0E0,8.223745E0,1.9849842E1,3.1643147E1,0E0,0E0,0E0,0E0,0E0,0E0],"parents":[2147483647,0,0,1,1,2,2,4,4,5,5,6,6],"right_children":[2,4,6,-1,8,10,12,-1,-1,-1,-1,-1,-1],"split_conditions":[5.463442E-1,8.603216E-1,6.309218E0,-1.973505E-1,2.7364042E0,1.3172877E0,5.574085E-1,1.7021557E-2,-8.463846E-2,-5.4188993E-2,-1.6114295E-3,1.4371423E-1,1.9117843E-2],"split_indices":[0,3,2,0,1,3,1,0,0,0,0,0,0],"split_type":[0,0,0,0,0,0,0,0,0,0,0,0,0],"sum_hessian":[9E2,4.6E1,8.54E2,3E0,4.3E1,5.47E2,3.07E2,1E1,3.3E1,8.4E1,4.63E2,2.1E1,2.86E2],"tree_param":{"num_deleted":"0","num_feature":"5","num_nodes":"13","size_leaf_vector":"1"}},{"base_weights":[-2.024503E-3,3.9880168E-2,-6.869657E-1,-4.9283525E-1,9.586727E-2,-1.076808E0,-2.2286378E-1,-3.9401863E-2,-1.9160447E-1,4.812487E-3,7.823954E-2,-1.3287525E-1,3.4788743E-2,-1.211487E-1,1.530955E-2],"categories":[],"categories_nodes":[],"categories_segments":[],"categories_sizes":[],"default_left":[0,0,0,0,0,0,0,0,0,0,0,0,0,0,0],"id":77,"left_children":[1,3,5,7,9,11,13,-1,-1,-1,-1,-1,-1,-1,-1],"loss_changes":[2.5888111E1,2.5398663E1,9.168201E0,1.0636621E1,2.5200253E1,1.05126915E1,9.477525E0,0E0,0E0,0E0,0E0,0E0,0E0,0E0,0E0],"parents":[2147483647,0,0,1,1,2,2,3,3,4,4,5,5,6,6],"right_children":[2,4,6,8,10,12,14,-1,-1,-1,-1,-1,-1,-1,-1],"split_conditions":[9.44732E0,8.8600427E-1,4.6866064E0,8.479202E-1,9.317404E0,9.514907E0,9.629269E0,-3.9401863E-2,-1.9160447E-1,4.812487E-3,7.823954E-2,-1.3287525E-1,3.4788743E-2,-1.211487E-1,1.530955E-2],"split_indices":[4,0,2,0,3,3,4,0,0,0,0,0,0,0,0],"split_type":[0,0,0,0,0,0,0,0,0,0,0,0,0,0,0],"sum_hessian":[9E2,8.49E2,5.1E1,8E1,7.69E2,2.7E1,2.4E1,7.6E1,4E0,7.2E2,4.9E1,2.3E1,4E0,6E0,1.8E1],"tree_param":{"num_deleted":"0","num_feature":"5","num_nodes":"15","size_leaf_vector":"1"}},{"base_weights":[-2.2127712E-3,-5.404132E-1,4.447716E-2,-7.5758415E-1,3.3534202E-1,2.316883E-1,-1.00826524E-1,-4.4860356E-2,-1.3681968E-1,-1.0370862E-2,1.234185E-1,1.8966137E-2,1.6962731E-1,-4.9785595E-2,5.3350045E-3],"categories":[],"categories_nodes":[],"categories_segments":[],"categories_sizes":[],"default_left":[0,0,0,0,0,0,0,0,0,0,0,0,0,0,0],"id":78,"left_children":[1,3,5,7,9,11,13,-1,-1,-1,-1,-1,-1,-1,-1],"loss_changes":[2.266485E1,1.3947626E1,2.2601412E1,1.0328934E1,6.0475597E0,2.202166E1,2.8674072E1,0E0,0E0,0E0,0E0,0E0,0E0,0E0,0E0],"parents":[2147483647,0,0,1,1,2,2,3,3,4,4,5,5,6,6],"right_children":[2,4,6,8,10,12,14,-1,-1,-1,-1,-1,-1,-1,-1],"split_conditions":[7.6979464E-1,7.330713E0,4.3165956E0,5.201635E0,4.530401E-1,9.685373E0,2.8654125E0,-4.4860356E-2,-1.3681968E-1,-1.0370862E-2,1.234185E-1,1.8966137E-2,1.6962731E-1,-4.9785595E-2,5.3350045E-3],"split_indices":[2,0,4,0,2,0,3,0,0,0,0,0,0,0,0],"split_type":[0,0,0,0,0,0,0,0,0,0,0,0,0,0,0],"sum_hessian":[9E2,7.1E1,8.29E2,5.7E1,1.4E1,3.62E2,4.67E2,3.9E1,1.8E1,1E1,4E0,3.53E2,9E0,1.3E2,3.37E2],"tree_param":{"num_deleted":"0","num_feature":"5","num_nodes":"15","size_leaf_vector":"1"}},{"base_weights":[-1.9079782E-3,-7.5494975E-2,3.2924512E-1,-1.6722637E-1,2.4159893E-1,7.016268E-2,8.557064E-1,4.3334868E-2,-2.383138E-2,3.963692E-2,-3.49009E-2,6.452479E-2,-2.8924063E-2,2.723836E-2,9.820893E-2],"categories":[],"categories_nodes":[],"categories_segments":[],"categories_sizes":[],"default_left":[0,0,0,0,0,0,0,0,0,0,0,0,0,0,0],"id":79,"left_children":[1,3,5,7,9,11,13,-1,-1,-1,-1,-1,-1,-1,-1],"loss_changes":[2.198093E1,2.1506952E1,2.230905E1,2.4566559E1,1.5312158E1,2.312895E1,3.713482E0,0E0,0E0,0E0,0E0,0E0,0E0,0E0,0E0],"parents":[2147483647,0,0,1,1,2,2,3,3,4,4,5,5,6,6],"right_children":[2,4,6,8,10,12,14,-1,-1,-1,-1,-1,-1,-1,-1],"split_conditions":[7.9915795E0,7.8517594E0,6.1958795E0,9.839565E-1,7.999161E0,3.7667644E0,8.8600427E-1,4.3334868E-2,-2.383138E-2,3.963692E-2,-3.49009E-2,6.452479E-2,-2.8924063E-2,2.723836E-2,9.820893E-2],"split_indices":[2,0,3,4,4,4,0,0,0,0,0,0,0,0,0],"split_type":[0,0,0,0,0,0,0,0,0,0,0,0,0,0,0],"sum_hessian":[9E2,7.37E2,1.63E2,5.72E2,1.65E2,1.1E2,5.3E1,6E1,5.12E2,1.31E2,3.4E1,4.2E1,6.8E1,1E1,4.3E1],"tree_param":{"num_deleted":"0","num_feature":"5","num_nodes":"15","size_leaf_vector":"1"}},{"base_weights":[-1.5115071E-3,6.020257E-2,-3.851141E-1,-1.9738816E-1,1.792009E-1,-6.876083E-1,8.237937E-2,-6.437295E-2,-2.6725612E-3,6.1313182E-2,8.9456765E-3,-4.3468144E-2,-1.2515406E-1,-1.7673282E-2,7.612916E-2],"categories":[],"categories_nodes":[],"categories_segments":[],"categories_sizes":[],"default_left":[0,0,0,0,0,0,0,0,0,0,0,0,0,0,0],"id":80,"left_children":[1,3,5,7,9,11,13,-1,-1,-1,-1,-1,-1,-1,-1],"loss_changes":[2.1353172E1,2.3852652E1,1.7733404E1,1.8721537E1,2.0662697E1,1.0296135E1,8.930267E0,0E0,0E0,0E0,0E0,0E0,0E0,0E0,0E0],"parents":[2147483647,0,0,1,1,2,2,3,3,4,4,5,5,6,6],"right_children":[2,4,6,8,10,12,14,-1,-1,-1,-1,-1,-1,-1,-1],"split_conditions":[8.779743E0,3.077709E0,5.989785E0,2.845414E0,1.7711068E0,4.8452296E0,6.7043433E0,-6.437295E-2,-2.6725612E-3,6.1313182E-2,8.9456765E-3,-4.3468144E-2,-1.2515406E-1,-1.7673282E-2,7.612916E-2],"split_indices":[1,0,3,2,4,3,2,0,0,0,0,0,0,0,0],"split_type":[0,0,0,0,0,0,0,0,0,0,0,0,0,0,0],"sum_hessian":[9E2,7.76E2,1.24E2,2.45E2,5.31E2,7.5E1,4.9E1,6.7E1,1.78E2,9E1,4.41E2,5.3E1,2.2E1,3.6E1,1.3E1],"tree_param":{"num_deleted":"0","num_feature":"5","num_nodes":"15","size_leaf_vector":"1"}},{"base_weights":[-1.4790074E-3,-6.737631E-1,3.2998823E-2,-3.0264676E-1,-1.1930064E0,-1.3111348E-2,5.522549E-1,2.6019206E-2,-9.287956E-2,-1.9716923E-1,-1.9524353E-2,-7.7573836E-2,1.4928897E-3,8.291867E-2,-4.9700695E-3],"categories":[],"categories_nodes":[],"categories_segments":[],"categories_sizes":[],"default_left":[0,0,0,0,0,0,0,0,0,0,0,0,0,0,0],"id":81,"left_children":[1,3,5,7,9,11,13,-1,-1,-1,-1,-1,-1,-1,-1],"loss_changes":[2.0906422E1,8.117723E0,2.0550325E1,9.7570305E0,1.3600031E1,1.6883753E1,1.1710253E1,0E0,0E0,0E0,0E0,0E0,0E0,0E0,0E0],"parents":[2147483647,0,0,1,1,2,2,3,3,4,4,5,5,6,6],"right_children":[2,4,6,8,10,12,14,-1,-1,-1,-1,-1,-1,-1,-1],"split_conditions":[4.522729E-1,5.2640266E0,9.303985E0,5.5680127E0,6.6252227E0,3.252618E-1,7.26671E0,2.6019206E-2,-9.287956E-2,-1.9716923E-1,-1.9524353E-2,-7.7573836E-2,1.4928897E-3,8.291867E-2,-4.9700695E-3],"split_indices":[3,1,0,0,0,2,4,0,0,0,0,0,0,0,0],"split_type":[0,0,0,0,0,0,0,0,0,0,0,0,0,0,0],"sum_hessian":[9E2,4.3E1,8.57E2,2.6E1,1.7E1,7.88E2,6.9E1,1.4E1,1.2E1,9E0,8E0,2.7E1,7.61E2,4.7E1,2.2E1],"tree_param":{"num_deleted":"0","num_feature":"5","num_nodes":"15","size_leaf_vector":"1"}},{"base_weights":[-1.6437002E-3,-4.8562616E-2,4.37903E-1,2.6271045E-2,-4.0341702E-1,-1.3619767E-1,4.9627635E-1,-9.536755E-3,2.4240933E-2,-1.14521675E-1,-2.6521033E-2,9.549168E-2,3.001733E-2],"categories":[],"categories_nodes":[],"categories_segments":[],"categories_sizes":[],"default_left":[0,0,0,0,0,0,0,0,0,0,0,0,0],"id":82,"left_children":[1,3,5,7,9,-1,11,-1,-1,-1,-1,-1,-1],"loss_changes":[1.8602636E1,2.165297E1,9.816576E0,1.7743088E1,1.4254356E1,0E0,7.358326E0,0E0,0E0,0E0,0E0,0E0,0E0],"parents":[2147483647,0,0,1,1,2,2,3,3,4,4,6,6],"right_children":[2,4,6,8,10,-1,12,-1,-1,-1,-1,-1,-1],"split_conditions":[8.980543E0,8.0543E0,4.010919E-1,6.309218E0,8.295628E0,-1.3619767E-1,2.3951018E0,-9.536755E-3,2.4240933E-2,-1.14521675E-1,-2.6521033E-2,9.549168E-2,3.001733E-2],"split_indices":[3,4,4,2,4,0,4,0,0,0,0,0,0],"split_type":[0,0,0,0,0,0,0,0,0,0,0,0,0],"sum_hessian":[9E2,8.14E2,8.6E1,6.73E2,1.41E2,2E0,8.4E1,4.31E2,2.42E2,2.1E1,1.2E2,2.4E1,6E1],"tree_param":{"num_deleted":"0","num_feature":"5","num_nodes":"13","size_leaf_vector":"1"}},{"base_weights":[-1.6315209E-3,-6.072105E-1,3.1659525E-2,-1.7773965E-1,-4.8702976E-1,9.046299E-2,-3.3637962E-1,2.2075659E-2,-7.016951E-2,1.3139828E-2,-5.428604E-2,-5.8649875E-2,8.240253E-3],"categories":[],"categories_nodes":[],"categories_segments":[],"categories_sizes":[],"default_left":[0,0,0,0,0,0,0,0,0,0,0,0,0],"id":83,"left_children":[1,3,5,-1,7,9,11,-1,-1,-1,-1,-1,-1],"loss_changes":[1.818371E1,5.7441463E0,1.8534319E1,0E0,6.8401384E0,1.9204185E1,1.240829E1,0E0,0E0,0E0,0E0,0E0,0E0],"parents":[2147483647,0,0,1,1,2,2,4,4,5,5,6,6],"right_children":[2,4,6,-1,8,10,12,-1,-1,-1,-1,-1,-1],"split_conditions":[5.463442E-1,8.603216E-1,8.779743E0,-1.7773965E-1,2.7364042E0,9.44732E0,5.989785E0,2.2075659E-2,-7.016951E-2,1.3139828E-2,-5.428604E-2,-5.8649875E-2,8.240253E-3],"split_indices":[0,3,1,0,1,4,3,0,0,0,0,0,0],"split_type":[0,0,0,0,0,0,0,0,0,0,0,0,0],"sum_hessian":[9E2,4.6E1,8.54E2,3E0,4.3E1,7.37E2,1.17E2,1E1,3.3E1,6.93E2,4.4E1,7.3E1,4.4E1],"tree_param":{"num_deleted":"0","num_feature":"5","num_nodes":"13","size_leaf_vector":"1"}},{"base_weights":[-1.82093E-3,-7.458526E-1,2.3778576E-2,2.4173963E-1,-1.0569346E0,6.7214996E-2,-4.192436E-1,-1.2580018E-1,6.35703E-2,-1.7127918E-1,-3.129995E-2,-7.1742027E-3,2.1763645E-2,-1.0003125E-1,-2.5315627E-2],"categories":[],"categories_nodes":[],"categories_segments":[],"categories_sizes":[],"default_left":[0,0,0,0,0,0,0,0,0,0,0,0,0,0,0],"id":84,"left_children":[1,3,5,7,9,11,13,-1,-1,-1,-1,-1,-1,-1,-1],"loss_changes":[1.7178944E1,9.472166E0,1.6808332E1,5.52646E0,1.06859455E1,1.6632797E1,7.2744036E0,0E0,0E0,0E0,0E0,0E0,0E0,0E0,0E0],"parents":[2147483647,0,0,1,1,2,2,3,3,4,4,5,5,6,6],"right_children":[2,4,6,8,10,12,14,-1,-1,-1,-1,-1,-1,-1,-1],"split_conditions":[3.320311E-1,1.9641922E0,9.271107E0,1.1706611E-1,6.195262E0,5.2439027E0,2.9938338E0,-1.2580018E-1,6.35703E-2,-1.7127918E-1,-3.129995E-2,-7.1742027E-3,2.1763645E-2,-1.0003125E-1,-2.5315627E-2],"split_indices":[3,4,1,0,0,2,3,0,0,0,0,0,0,0,0],"split_type":[0,0,0,0,0,0,0,0,0,0,0,0,0,0,0],"sum_hessian":[9E2,2.9E1,8.71E2,7E0,2.2E1,7.94E2,7.7E1,1E0,6E0,1.1E1,1.1E1,4.13E2,3.81E2,1.6E1,6.1E1],"tree_param":{"num_deleted":"0","num_feature":"5","num_nodes":"15","size_leaf_vector":"1"}},{"base_weights":[-2.0554182E-3,5.004915E-1,-3.850406E-2,-7.290402E-2,9.2852545E-1,2.7754515E-2,-3.1219193E-1,2.755916E-2,-1.3385706E-1,-3.5642094E-3,1.2155248E-1,-4.404101E-3,3.7962344E-2,-4.6613555E-2,2.6851857E-2],"categories":[],"categories_nodes":[],"categories_segments":[],"categories_sizes":[],"default_left":[0,0,0,0,0,0,0,0,0,0,0,0,0,0,0],"id":85,"left_children":[1,3,5,7,9,11,13,-1,-1,-1,-1,-1,-1,-1,-1],"loss_changes":[1.6523024E1,1.5039092E1,1.52595E1,1.2278037E1,9.728363E0,1.7144772E1,1.4786222E1,0E0,0E0,0E0,0E0,0E0,0E0,0E0,0E0],"parents":[2147483647,0,0,1,1,2,2,3,3,4,4,5,5,6,6],"right_children":[2,4,6,8,10,12,14,-1,-1,-1,-1,-1,-1,-1,-1],"split_conditions":[6.1349624E-1,5.02679E0,7.9751406E0,4.0202723E0,1.6352388E0,8.268585E0,8.141257E0,2.755916E-2,-1.3385706E-1,-3.5642094E-3,1.2155248E-1,-4.404101E-3,3.7962344E-2,-4.6613555E-2,2.6851857E-2],"split_indices":[1,2,4,2,0,0,3,0,0,0,0,0,0,0,0],"split_type":[0,0,0,0,0,0,0,0,0,0,0,0,0,0,0],"sum_hessian":[9E2,6E1,8.4E2,2.6E1,3.4E1,6.77E2,1.63E2,2.1E1,5E0,8E0,2.6E1,5.63E2,1.14E2,1.29E2,3.4E1],"tree_param":{"num_deleted":"0","num_feature":"5","num_nodes":"15","size_leaf_vector":"1"}},{"base_weights":[-1.8214635E-3,-5.651227E-1,2.7067903E-2,-2.449732E-1,-1.0139513E0,-1.1101171E-2,4.5690122E-1,2.713086E-2,-8.218389E-2,-1.6791378E-1,-1.6219394E-2,3.804476E-2,-5.581816E-3,6.8437025E-2,-3.7681994E-3],"categories":[],"categories_nodes":[],"categories_segments":[],"categories_sizes":[],"default_left":[0,0,0,0,0,0,0,0,0,0,0,0,0,0,0],"id":86,"left_children":[1,3,5,7,9,11,13,-1,-1,-1,-1,-1,-1,-1,-1],"loss_changes":[1.4677645E1,6.07407E0,1.4081713E1,8.264253E0,9.926048E0,1.3835744E1,7.9009533E0,0E0,0E0,0E0,0E0,0E0,0E0,0E0,0E0],"parents":[2147483647,0,0,1,1,2,2,3,3,4,4,5,5,6,6],